tree
version=v2
num_class=1
num_tree_per_iteration=1
label_index=0
max_feature_idx=118
objective=regression
feature_names=recovered_lag_2 dead_lag_4 lag3_minus_max recovered_poly_pred rolling_confirmed_min testpop recovered_poly_1 Death_rate,_crude_(per_1,000_people) dead_lag_1 rolling_recovered_mean hospibed lag1_minus_max Population,_total GDP_($_per_capita) Cause_of_death,_by_communicable_diseases_and_maternal,_prenatal_and_nutrition_conditions_(%_of_total) Mortality_rate_attributed_to_household_and_ambient_air_pollution,_age-standardized_(per_100,000_population) rolling_confirmed_std tests Mortality_from_CVD,_cancer,_diabetes_or_CRD_between_exact_ages_30_and_70_(%) rolling_recovered_min Poverty_headcount_ratio_at_$3.20_a_day_(2011_PPP)_(%_of_population) Mortality_rate,_adult,_female_(per_1,000_female_adults) Tuberculosis_treatment_success_rate_(%_of_new_cases) confirmed_ridge_bias recovered_poly_0 recovered_lag_7 International_migrant_stock,_total recovered_lag_1 recovered_poly_3 confirmed_poly_3 recovered_ridge_coef rolling_dead_min Infant_mortality_(per_1000_births) confirmed_poly_2 recovered_ridge_pred rolling_dead_mean Number_of_people_spending_more_than_25%_of_household_consumption_or_income_on_out-of-pocket_health_care_expenditure Population_in_urban_agglomerations_of_more_than_1_million_(%_of_total_population) dead_lag_7 Survival_to_age_65,_male_(%_of_cohort) dead_ridge_pred Number_of_people_spending_more_than_10%_of_household_consumption_or_income_on_out-of-pocket_health_care_expenditure Labor_force_participation_rate,_total_(%_of_total_population_ages_15+)_(modeled_ILO_estimate) recovered_expanding_max dead_lag_2 recovered_lag_4 dead_poly_0 Smoking_prevalence,_females_(%_of_adults) Population_ages_15-64_(%_of_total) Survival_to_age_65,_female_(%_of_cohort) Cause_of_death,_by_non-communicable_diseases_(%_of_total) schools confirmed_lag_2 GDP_per_capita,_PPP_(current_international_$) confirmed_poly_0 recovered_poly_2 Life_expectancy_at_birth,_total_(years) Hospital_beds_(per_1,000_people) Mortality_rate,_adult,_male_(per_1,000_male_adults) temperature rolling_recovered_std recovered_lag_5 rolling_recovered_max People_using_at_least_basic_sanitation_services_(%_of_population) dead_lag_5 Mortality_rate_attributed_to_unsafe_water,_unsafe_sanitation_and_lack_of_hygiene_(per_100,000_population) Trade_(%_of_GDP) Diabetes_prevalence_(%_of_population_ages_20_to_79) Population_density_(people_per_sq._km_of_land_area) People_using_safely_managed_sanitation_services_(%_of_population) Tuberculosis_case_detection_rate_(%,_all_forms) confirmed_lag_6 dead_expanding_max rolling_dead_std PM2.5_air_pollution,_population_exposed_to_levels_exceeding_WHO_guideline_value_(%_of_total) Incidence_of_tuberculosis_(per_100,000_people) People_with_basic_handwashing_facilities_including_soap_and_water_(%_of_population) rolling_dead_max Net_migration medianage recovered_lag_6 confirmed_expanding_max dead_ridge_coef Population_in_the_largest_city_(%_of_urban_population) lag2_minus_max Out-of-pocket_expenditure_(%_of_current_health_expenditure) dead_ridge_bias confirmed_lag_5 confirmed_lag_1 confirmed_lag_3 dead_poly_2 quarantine dead_lag_3 confirmed_lag_4 rolling_confirmed_max restrictions Current_health_expenditure_per_capita,_PPP_(current_international_$) Urban_population_(%_of_total) confirmed_ridge_pred confirmed_poly_pred days_since_quar_start recovered_ridge_bias confirmed_ridge_coef dead_lag_6 Air_transport,_passengers_carried confirmed_lag_7 Population_ages_65_and_above_(%_of_total) dead_poly_pred International_tourism,_number_of_departures Prevalence_of_HIV,_total_(%_of_population_ages_15-49) dead_poly_1 recovered_lag_3 confirmed_poly_1 Smoking_prevalence,_males_(%_of_adults) International_tourism,_number_of_arrivals rolling_confirmed_mean dead_poly_3 quar_type Region
feature_infos=[0:10980] [0:2108] [0:23724] [-13960.999999999971:23429.142857142866] [0:252] [0:415993.10729999997] [-14069.277777777916:21677.666666666893] [0:15.1] [0:4591] [0:1736.4285714285713] [0:13.799999999999988] [0:23628] [0:1378665000] [0:55100] [0:65.299999999999997] [0:307.39999999999998] [0:13084.574451292961] [0:320000] [0:30.600000000000001] [0:39] [0:79.700000000000003] [0:379.95400000000001] [0:100] [-1851.3793103448274:2339.3793103448274] [-16321.5714285717:19509.571428571533] [0:10219] none [0:10980] [-398.47222222222626:430.75000000000347] [-608.58333333333428:803.41666666667584] [-3331.3940886699502:8865.1625615763551] [0:5] [0:191.19] [-9983.5119047620319:7275.8571428571668] [-162.01970443349751:8941] [0:799] none [0:100] [0:2108] [0:90.40373000000001] [-11.201970443349751:3649.1133004926105] none [0:87.174003601074205] [0:10980] [0:2494] [0:10494] [-546.28571428573207:2244.8571428571595] [0:44] [0:85.028100421031709] [0:94.319769999999991] [0:95.299999999999997] [0:1] [0:35098] [0:127640.32865072] [-25032.571428572053:41335.714285714334] [-5705.9404761905271:4515.059523809552] [0:83.984878048780502] none [0:496.80000000000001] [-7.6830601092896176:40.754098360655739] [0:4148.9207604135408] [0:10219] [0:10980] none [0:2108] [0:101] [0:413.51538227809499] none [0:19249.5] none [0:100] [0:35098] [0:4591] [0:1727.7290214117991] [0:100] [0:618] none [0:4591] [-13.92:23.059999999999999] [0:54] [0:10219] [0:35098] [-45.75369458128079:2100.576354679803] [0:100] [0:23724] [0:80.646954400000013] [-110.34482758620689:325.20689655172413] [0:35098] [0:35098] [0:35098] [-478.1666666666689:441.98809523809786] [0:1] [0:2303] [0:35098] [0:35098] [0:1] [0:9869.7423817399995] [0:100] [-3139.8029556650254:36055.507389162565] [-16522.428571428718:55993.285714285666] [0:39] [-944.86206896551721:1329.2413793103447] [-2171.8029556650245:35402.990147783254] [0:2108] [0:824039000] [0:35098] [0:26.564562829784197] [-425.1428571428533:7083] [0:135130000] [0:27.899999999999999] [-1603.4523809523928:1622.9960317460425] [0:10494] [-23152.20238095252:35813.071428571966] [0:78.099999999999994] [0:82682000] [0:7041] [-34.416666666666814:39.194444444444549] 9:8:1:12:7:0:2:3:4:5:6:10:11 8:10:4:11:0:5:2:3:6:9:1:7
tree_sizes=1233 1261 1257 1263 1258 1241 1248 1250 1250 1250 1247 1242 1249 1246 1241 1253 1240 1246 1251 1249 1241 1240 1238 1233 1242 1249 1250 1253 1250 1245 1246 1243 1244 1245 1246 1243 1252 1246 1251 1253 1250 1247 1253 1260 1251 1243 1240 1250 1240 1252 1245 1243 1226 1236 1252 1239 1240 1248 1237 1256 1243 1237 1244 1236 1242 1243 1237 1242 1247 1243 1246 1249 1247 1251 1252 1246 1239 1234 1249 1231 1250 1246 1273 1240 1241 1241 1257 1245 1238 1246 1242 1233 1245 1243 1226 1250 1256 1251 1246 1254 1239 1241 1249 1250 1245 1246 1243 1243 1245 1236 1245 1243 1255 1255 1250 1250 1247 1247 1241 1241 1245 1245 1240 1248 1249 1249 1243 1241 1241 1249 1237 1251 1243 1258 1238 1250 1251 1244 1258 1248 1232 1246 1243 1253 1251 1250 1244 1258 1253 1253 1248 1241 1238 1241 1262 1258 1243 1260 1258 1258 1252 1244 1266 1250 1255 1258 1257 1256 1231 1259 1242 1243 1248 1246 1255 1269 1263 1259 1250 1259 1252 1255 1266 1252 1246 1244 1262 1249 1236 1252 1248 1262 1265 1268 1262 1263 1243 1257 1267 1250 1260 1264 1258 1258 1266 1259 1250 1258 1259 1249 1251 1259 1254 1262 1246 1259 1264 1251 1265 1272 1249 1253 1250 1264 1258 1267 1258 1258 1256 1254 1251 1260 1251 1251 1258 1243 1261 1263 1263 1262 1266 1268 1267 1244 1265 1253 1255 1265 1258 1255 1250 1247 1248 1244 1250 1260 1258 1258 1261 1269 1270 1256 1268 1260 1268 1267 1252 1252 1253 1254 1259 1268 1264 1272 1259 1256 1271 1274 1249 1255 1248 1253 1255 1254 1250 1258 1266 1264 1258 1249 1244 1248 1257 1253 1265 1259 1255 1262 1257 1256 1256 1249 1252 1261 1263 1259 1260 1257 1253 1265 1262 1255 1265 1252 1259 1252 1272 1272 1264 1256 1263 1265 1260 1259 1268 1261 1260 1259 1263 1270 1254 1262 1250 1257 1259 1245 1260 1264 1256 1253 1268 1266 1273 1259 1256 1269 1255 1265 1263 1271 1260 1260 1271 1253 1270 1267 1273 1272 1265 1261 1266 1269 1280 1262 1275 1271 1264 1266 1270 1269 1277 1265 1265 1261 1277 1256 1273 1264 1263 1266 1280 1272 1277 1273 1257 1285 1280 1282 1285 1279 1266 1287 1277 1274 1268 1279 1273 1270 1270 1280 1260 1272 1274 1273 1268 1276 1268 1268 1266 1267 1282 1268 1255 1278 1280 1264 1247 1272 1274 1276 1279 1286 1266 1267 1276 1273 1262 1264 1262 1279 1275 1278 1276 1255 1276 1270 1281 1270 1278 1271 1267 1280 1278 1279 1274 1268 1277 1271 1284 1276 1261 1277 1283 1277 1282 1282 1272 1266 1272 1269 1262 1268 1276 1279 1265 1263 1276 1270 1266 1277 1270 1271 1269 1266 1279 1269 1281 1280 1281 1277 1265 1270 1270 1279 1269 1272 1282 1254 1274 1272 1274 1278 1276 1273 1270 1274 1268 1265 1278 1269 1286 1285 1284 1275 1283 1262 1256 1267 1275 1254 1276 1283 1275 1264 1284 1273 1274 1271 1268 1272 1256 1284 1284 1270 1275 1272 1271 1266 1272 1274 1272 1275 1275 1273 1277 1269 1260 1270 1265 1267 1281 1268 1263 1268 1268 1280 1271 1273 1274 1283 1272 1276 1275 1275 1269 1260 1279 1278 1272 1275 1278 1280 1278 1283 1276 1272 1279 1274 1266 1270 1269 1280 1279 1248 1278 1279 1279 1283 1275 1281 1266 1268 1284 1283 1281 1267 1269 1274 1265 1271 1286 1292 1286 1284 1280 1269 1266 1280 1278 1268 1256 1278 1273 1266 1275 1282 1276 1288 1280 1287 1269 1271 1280 1274 1267 1278 1277 1263 1275 1261 1263 1267 1265 1286 1261 1274 1269 1274 1281 1278 1271 1280 1278 1278 1286 1270 1280 1275 1290 1284 1254 1287 1284 1291 1277 1284 1284 1251 1250 1280 1278 1270 1265 1271 1267 1267 1282 1264 1265 1282 1277 1278 1274 1270 1253 1252 1275 1287 1265 1268 1272 1290 1282 1282 1278 1259 1264 1258 1248 1276 1288 1284 1275 1289 1281 1273 1264 1279 1273 1282 1264 1274 1286 1284 1275 1281 1276 1283 1270 1275 1285 1265 1265 1270 1270 1268 1274 1278 1277 1272 1263 1264 1271 1273 1265 1266 1275 1266 1280 1262 1272 1282 1269 1275 1270 1274 1272 1272 1261 1261 1272 1280 1284 1276 1287 1270 1279 1274 1268 1260 1268 1279 1254 1275 1271 1280 1280 1270 1266 1268 1274 1274 1276 1272 1277 1267 1278 1262 1268 1278 1286 1269 1271 1287 1273 1266 1270 1264 1270 1261 1284 1284 1277 1285 1280 1266 1284 1281 1280 1272 1266 1262 1259 1260 1268 1285 1281 1276 1276 1283 1258 1281 1282 1271 1269 1279 1275 1286 1286 1279 1268 1273 1280 1273 1255 1285 1273 1277 1271 1282 1267 1274 1282 1269 1258 1290 1275 1272 1270 1275 1285 1278 1267 1271 1288 1286 1278 1275 1273 1267 1270 1262 1260 1267 1271 1274 1279 1273 1276 1277 1268 1281 1270 1277 1282 1266 1269 1273 1271 1277 1278 1287 1281 1284 1284 1277 1278 1286 1271 1278 1276 1269 1275 1276 1279 1269 1286 1278 1285 1259 1281 1272 1274 1285 1274 1261 1277 1251 1278 1262 1273 1285 1277 1272 1277 1267 1269 1272 1271 1260 1262 1267 1253 1276 1262 1271 1281 1277 1281 1261 1279 1256 1274 1265 1252 1282 1275 1269 1267 1285 1267 1267 1279 1285 1278 1276 1272 1273 1272 1260 1284 1278 1284 1272 1274 1263 1261 1267 1268 1272 1278 1271 1279 1276 1282 1278 1273 1283 1293 1277 1273 1268 1285 1283 1282 1284 1270 1273 1278 1278 1270 1270 1257 1270 1266 1273 1277 1271 1268 1278 1271 1276 1279 1284 1285 1266 1247 1274 1272 1270 1277 1264 1278 1282 1273 1274 1281 1283 1278 1278 1270 1282 1283 1284 1277 1276 1278 1278 1275 1285 1281 1257 1255 1281 1258 1267 1275 1269 1261 1268 1279 1258 1271 1271 1285 1287 1285 1278 1262 1274 1263 1271 1279 1277 1281 1254 1270 1290 1288 1274 1278 1272 1286 1281 1279 1269 1272 1275 1270 1265 1270 1270 1273 1285 1269 1287 1272 1272 1279 1281 1272 1280 1280 1272 1277 1256 1270 1277 1267 1263 1283 1263 1279 1285 1280 1265 1279 1279 1276 1272 1277 1275 1273 1275 1276 1272 1271 1264 1279 1266 1271 1274 1276 1274 1273 1277 1281 1269 1277 1271 1274 1268 1262 1274 1273 1271 1262 1272 1287 1267 1269 1269 1273 1283 1252 1284 1279 1293 1292 1280 1271 1282 1285 1280 1283 1275 1267 1251 1262 1269 1287 1275 1273 1271 1263 1277 1285 1277 1279 1289 1254 1267 1272 1277 1266 1265 1279 1270 1277 1277 1259 1260 1270 1275 1269 1279 1273 1284 1275 1267 1272 1284 1272 1278 1285 1289 1272 1296 1274 1281 1273 1272 1271 1255 1272 1276 1273 1276 1277 1271 1287 1279 1277 1278 1283 1260 1277 1262 1271 1280 1272 1279 1290 1278 1274 1272 1282 1273 1276 1266 1285 1275 1272 1262 1274 1278 1280 1289 1281 1282 1269 1265 1263 1266 1266 1282 1265 1285 1276 1279 1279 1265 1265 1277 1274 1283 1285 1288 1276 1276 1268 1277 1283 1271 1266 1265 1258 1275 1270 1277 1280 1292 1287 1282 1277 1280 1274 1279 1278 1278 1270 1266 1280 1282 1282 1274 1269 1273 1276 1277 1274 1270 1266 1269 1281 1271 1269 1272 1278 1267 1282 1293 1285 1277 1274 1281 1289 1289 1265 1280 1275 1272 1277 1274 1269 1272 1269 1265 1267 1275 1269 1273 1254 1277 1270 1284 1276 1272 1270 1288 1272 1270 1271 1276 1272 1282 1285 1279 1280 1273 1284 1267 1267 1273 1288 1277 1269 1264 1266 1279 1263 1281 1287 1277 1275 1244 1258 1269 1274 1260 1272 1273 1267 1267 1279 1276 1282 1288 1260 1285 1282 1275 1285 1276 1282 1271 1276 1274 1281 1252 1283 1287 1285 1286 1275 1268 1274 1278 1285 1271 1275 1261 1256 1264 1295 1281 1279 1289 1270 1280 1273 1269 1290 1275 1279 1273 1283 1268 1271 1276 1279 1287 1274 1275 1271 1254 1265 1270 1272 1261 1283 1266 1268 1263 1270 1278 1275 1276 1262 1275 1268 1265 1260 1277 1267 1279 1267 1279 1275 1282 1271 1271 1281 1284 1281 1276 1276 1282 1272 1278 1262 1271 1270 1275 1270 1260 1252 1289 1278 1270 1284 1286 1288 1273 1288 1271 1273 1278 1272 1274 1280 1272 1271 1271 1277 1271 1272 1274 1278 1260 1284 1289 1288 1272 1290 1269 1259 1267 1276 1269 1281 1278 1283 1273 1284 1269 1279 1275 1273 1274 1271 1270 1274 1258 1266 1280 1266 1270 1277 1276 1284 1275 1300 1275 1269 1277 1265 1277 1279 1267 1269 1276 1278 1264 1286 1277 1267 1259 1273 1266 1276 1272 1280 1271 1269 1277 1272 1273 1283 1267 1284 1257 1289 1264 1268 1267 1262 1267 1264 1275

Tree=0
num_leaves=15
num_cat=0
split_feature=34 34 27 105 0 43 82 11 111 22 80 43 80 107
split_gain=7.0045e+08 7.65184e+07 7.21247e+07 2.886e+07 1.9753e+07 5.88246e+06 3.99107e+06 1.84942e+06 1.81887e+06 1.35283e+06 511309 495657 480774 359993
threshold=1221.5714285714289 264.15270935960598 2598.0000000000005 2167.0000000000005 1789.0000000000002 66.500000000000014 14.866995073891633 338.50000000000006 443.00000000000006 78.500000000000014 49.500000000000007 204.50000000000003 96.500000000000014 24.142857142857071
decision_type=2 2 2 2 2 2 2 2 2 2 2 2 2 2
left_child=1 5 4 6 -2 13 -3 10 -8 -9 -7 -12 -11 -1
right_child=2 3 -4 -5 -6 7 8 9 -10 12 11 -13 -14 -15
leaf_value=39.621575584673835 53.305073338565848 42.430120948107003 75.186550047840868 54.447359166202567 63.855279830853618 40.153472399041092 44.287117327977924 43.247274671302172 47.341219932672779 40.309087293685444 40.450698652104428 41.905659796786367 41.90478763790405 40.336023081638174
leaf_count=10579 35 63 42 35 36 237 39 44 39 41 61 38 35 71
internal_value=0 -22.4893 2479.66 631.713 1865.19 -32.8567 429.962 78.3659 581.164 184.931 40.307 100.664 104.142 -37.6189
internal_count=11395 11282 113 176 71 11106 141 456 78 120 336 99 76 10650
shrinkage=1


Tree=1
num_leaves=15
num_cat=0
split_feature=34 34 27 105 80 43 82 2 27 111 111 107 80 43
split_gain=6.86511e+08 7.49957e+07 7.06894e+07 2.82857e+07 1.02935e+07 5.76539e+06 3.91164e+06 1.89422e+06 2.07833e+06 1.78268e+06 960116 352829 311424 230703
threshold=1221.5714285714289 264.15270935960598 2598.0000000000005 2167.0000000000005 1474.0000000000002 66.500000000000014 14.866995073891633 234.50000000000003 1.0000000180025095e-35 443.00000000000006 127.00000000000001 24.142857142857071 70.500000000000014 21.500000000000004
decision_type=2 2 2 2 2 2 2 2 2 2 2 2 2 2
left_child=1 5 4 6 -2 11 -3 12 -9 -8 -10 13 -7 -1
right_child=2 3 -4 -5 -6 7 9 8 10 -11 -12 -13 -14 -15
leaf_value=-0.38760857685881173 14.711073769463432 2.4033178820685737 34.832182373773485 14.300383508954729 22.327048101152691 0.10556534226264869 4.2417442536965391 3.7698613358906341 0.49158192113502736 7.2653056726700225 2.2725625523653896 0.33016091830293898 0.96316819800780362 -0.16878492353461946
leaf_count=10073 36 63 42 35 35 228 39 35 97 39 44 71 52 506
internal_value=0 -22.2644 2454.86 625.396 1846.54 -32.5281 425.662 77.5822 158.876 575.352 104.735 -37.2427 26.4834 -37.7142
internal_count=11395 11282 113 176 71 11106 141 456 176 78 141 10650 280 10579
shrinkage=0.01


Tree=2
num_leaves=15
num_cat=0
split_feature=34 34 27 105 0 43 82 2 27 111 111 107 80 43
split_gain=6.72849e+08 7.35032e+07 6.92827e+07 2.77228e+07 1.92765e+07 5.65066e+06 3.8338e+06 1.85653e+06 2.03697e+06 1.7472e+06 941010 345808 305227 226112
threshold=1221.5714285714289 264.15270935960598 2598.0000000000005 2167.0000000000005 1789.0000000000002 66.500000000000014 14.866995073891633 234.50000000000003 1.0000000180025095e-35 443.00000000000006 127.00000000000001 24.142857142857071 70.500000000000014 21.500000000000004
decision_type=2 2 2 2 2 2 2 2 2 2 2 2 2 2
left_child=1 5 4 6 -2 11 -3 12 -9 -8 -10 13 -7 -1
right_child=2 3 -4 -5 -6 7 9 8 10 -11 -12 -13 -14 -15
leaf_value=-0.38373250060754627 12.996298206874304 2.3792846885560048 34.483860331944058 14.157379656110491 23.418456162346732 0.10450969296850657 4.1993267411452075 3.7321628016063149 0.4866661000989147 7.1926527033096708 2.2498369043523616 0.32685927813321769 0.95353651853708121 -0.16709707275386385
leaf_count=10073 35 63 42 35 36 228 39 35 97 39 44 71 52 506
internal_value=0 -22.0418 2430.32 619.142 1828.08 -32.2028 421.406 76.8064 157.287 569.599 103.688 -36.8702 26.2186 -37.3371
internal_count=11395 11282 113 176 71 11106 141 456 176 78 141 10650 280 10579
shrinkage=0.01


Tree=3
num_leaves=15
num_cat=0
split_feature=27 111 27 81 45 111 61 91 72 45 105 45 84 116
split_gain=6.42008e+08 9.32226e+07 5.8449e+07 2.4245e+07 5.46796e+06 3.05156e+06 2.77593e+06 1.48419e+06 1.36583e+06 1.3289e+06 420958 285009 137881 126490
threshold=1504.0000000000002 666.50000000000011 2598.0000000000005 1312.5000000000002 419.00000000000006 164.00000000000003 45.500000000000007 1.0000000180025095e-35 163.00000000000003 27.500000000000004 77.500000000000014 89.000000000000014 156.50000000000003 0.13888888888888828
decision_type=2 2 2 2 2 2 2 2 2 2 2 2 2 2
left_child=1 3 -2 5 6 9 7 -5 -8 10 -1 -11 -13 -12
right_child=2 -3 -4 4 -6 -7 8 -9 -10 11 13 12 -14 -15
leaf_value=-0.37656623110496579 18.704304192753163 12.026475143432618 34.13902124314081 -0.075594120820363361 6.3920377044677732 1.9338124028302854 4.6013165533776377 2.5984865538733346 2.0968389405702292 0.15988909722420208 -0.15676954763137027 0.47758832725318706 1.3468737875090704 0.24132001717885335
leaf_count=10245 59 62 42 51 40 59 51 35 38 171 367 37 36 102
internal_value=0 -20.192 2512.27 -26.942 305.637 -33.4324 229.394 101.269 353.199 -34.6536 -36.3155 38.3194 90.6277 -7.01914
internal_count=11395 11294 101 11232 215 11017 175 86 89 10958 10714 244 73 469
shrinkage=0.01


Tree=4
num_leaves=15
num_cat=0
split_feature=34 34 27 105 0 11 82 93 111 80 30 105 107 34
split_gain=6.46797e+08 7.05398e+07 6.64396e+07 2.6957e+07 1.88297e+07 4.88125e+06 3.67676e+06 1.75443e+06 1.64836e+06 1.63438e+06 935344 577636 520268 138907
threshold=1221.5714285714289 264.15270935960598 2598.0000000000005 2167.0000000000005 1789.0000000000002 338.50000000000006 14.866995073891633 1135.5000000000002 443.00000000000006 42.500000000000007 56.78325123152711 98.500000000000014 15.285714285714246 15.633004926108375
decision_type=2 2 2 2 2 2 2 2 2 2 2 2 2 2
left_child=1 5 4 6 -2 9 -3 10 -8 11 -7 13 -11 -1
right_child=2 3 -4 -5 -6 7 8 -9 -10 12 -12 -13 -14 -15
leaf_value=-0.37520083142500399 12.70761291721889 2.3184769579626265 33.797631596156528 13.920298756190709 23.008276358710397 0.088757504690183356 4.1128291897896005 3.1952358093203568 7.0202553108410966 0.37503434347393722 1.8859577087561288 0.0050807330095684611 1.7791850718936406 -0.14022965387202974
leaf_count=10128 35 63 42 35 36 73 39 41 39 92 48 429 37 258
internal_value=0 -21.6116 2382.8 606.514 1793.05 -31.5657 411.528 140.747 556.654 -34.1164 80.1696 -35.4511 77.7775 -36.9364
internal_count=11395 11282 113 176 71 11106 141 162 78 10944 121 10815 129 10386
shrinkage=0.01


Tree=5
num_leaves=15
num_cat=0
split_feature=27 27 111 81 82 71 80 43 81 61 43 30 39 112
split_gain=5.20792e+08 1.12701e+08 3.3591e+07 2.14254e+07 8.866e+06 7.75441e+06 5.53193e+06 3.73639e+06 981047 691155 538715 273667 170681 163871
threshold=640.50000000000011 2339.0000000000005 306.00000000000006 6347.5000000000009 18.573891625615769 1242.0000000000002 1373.0000000000002 115.00000000000001 234.50000000000003 169.50000000000003 26.500000000000004 47.371921182266014 86.906400000000005 5.4543650793650924
decision_type=2 2 2 2 2 2 2 2 2 2 2 2 2 2
left_child=2 3 5 -2 -4 7 -5 10 -9 11 -1 12 -10 -13
right_child=1 -3 4 6 -6 -7 -8 8 9 -11 -12 13 -14 -15
leaf_value=-0.37113871715704189 6.6133266030187192 29.606306919684776 2.8857756052519146 12.685018764295076 9.6728899090106673 3.2810406540234887 18.195303410121372 -0.13478115799783291 0.79552813857288684 2.1806504899263381 -0.051513326668428436 1.6877336003205605 -0.078202168511019812 0.76124840927124027
leaf_count=10224 46 52 38 38 39 60 35 87 59 48 556 42 36 35
internal_value=0 1732.52 -25.8803 1195.87 632.34 -30.4271 1532.69 -32.3674 76.4152 111.964 -35.4653 82.3543 46.443 126.66
internal_count=11395 171 11224 119 77 11147 73 11087 307 220 10780 172 95 77
shrinkage=0.01


Tree=6
num_leaves=15
num_cat=0
split_feature=43 27 102 111 80 105 71 43 43 84 43 61 2 102
split_gain=5.10585e+08 1.22487e+08 3.92671e+07 2.12354e+07 8.90498e+06 4.11755e+06 3.89185e+06 2.01432e+06 958020 878585 281928 177620 107454 106241
threshold=1571.0000000000002 2339.0000000000005 1837.751231527094 145.00000000000003 1122.0000000000002 896.50000000000011 1242.0000000000002 62.500000000000007 597.50000000000011 410.50000000000006 20.500000000000004 14.500000000000002 274.50000000000006 105.40640394088672
decision_type=2 2 2 2 2 2 2 2 2 2 2 2 2 2
left_child=3 2 -2 6 -4 9 7 10 11 -5 -1 -9 -13 -12
right_child=1 -3 4 5 -6 -7 -8 8 -10 -11 13 12 -14 -15
leaf_value=-0.3691434638997293 5.8883416616215429 29.310243585293112 13.02893740971883 1.1522143206840907 20.112641704014372 5.8053553001835665 2.8332460325192184 -0.032370711819930648 1.9280033775832919 3.1825124131872298 -0.20964082995177449 0.26935767302662134 0.78765842212896264 0.12765652928315102
leaf_count=10094 68 52 36 39 35 53 39 159 36 47 421 140 56 120
internal_value=0 1621.74 1131.94 -27.1358 1652.09 361.294 -32.0153 -33.1307 37.3606 226.18 -35.7224 21.5977 41.7444 -13.4824
internal_count=11395 191 139 11204 71 139 11065 11026 391 86 10635 355 196 541
shrinkage=0.01


Tree=7
num_leaves=15
num_cat=0
split_feature=34 27 30 34 89 43 82 84 22 61 29 107 43 17
split_gain=5.42315e+08 9.60525e+07 2.47493e+07 2.22016e+07 5.88419e+06 4.63742e+06 3.33251e+06 1.54417e+06 1.12489e+06 646344 741101 370598 225101 197477
threshold=687.57142857142878 2339.0000000000005 1041.997536945813 264.15270935960598 3073.0000000000005 66.500000000000014 18.573891625615769 410.50000000000006 79.500000000000014 32.500000000000007 -2.2500000000000155 24.142857142857071 20.500000000000004 2424.5000000000005
decision_type=2 2 2 2 2 2 2 2 2 2 2 2 2 2
left_child=3 2 4 5 -2 11 -5 9 -9 -7 -11 12 -1 -13
right_child=1 -3 -4 6 -6 7 -8 8 -10 10 -12 13 -14 -15
leaf_value=-0.36610515057478032 6.1816797637939453 29.017141924638015 18.369536918477809 2.5278351441600866 11.899191127353244 -0.02437609267846132 6.0112625021304726 3.0596775250434876 0.93444298929337299 2.1211089160761665 0.46732050186395646 -0.15671755540370944 -0.1533215019722998 0.90556323364802771
leaf_count=10065 36 52 47 57 36 195 53 40 66 35 120 35 523 35
internal_value=0 1767.94 1272.5 -26.4301 904.044 -30.8548 420.621 67.9001 173.642 35.8754 84.0757 -35.08 -35.5595 37.4423
internal_count=11395 171 119 11224 72 11114 110 456 106 350 155 10658 10588 70
shrinkage=0.01


Tree=8
num_leaves=15
num_cat=0
split_feature=43 27 102 111 30 105 87 22 45 84 43 11 105 0
split_gain=4.9066e+08 1.17603e+08 3.79534e+07 2.04096e+07 1.37283e+07 3.96455e+06 3.63829e+06 1.83917e+06 1.47439e+06 845145 398721 376174 144813 138567
threshold=1571.0000000000002 2339.0000000000005 1837.751231527094 145.00000000000003 1041.997536945813 896.50000000000011 874.50000000000011 74.500000000000014 30.500000000000004 410.50000000000006 22.500000000000004 261.50000000000006 87.500000000000014 87.500000000000014
decision_type=2 2 2 2 2 2 2 2 2 2 2 2 2 2
left_child=3 2 -2 6 -4 9 8 -8 10 -5 -1 13 -12 -10
right_child=1 -3 4 5 -6 -7 7 -9 11 -11 12 -13 -14 -15
leaf_value=-0.36144405368192062 5.7590174700232115 28.726969549151569 11.752595567975725 1.1279480445079313 20.547944318983291 5.6933076131568763 3.5352689323084694 0.46366854992779821 0.08401081144919291 3.1192334747314452 -0.21934804096435889 1.2252002126216888 0.094904033837800328 0.70896673169607927
leaf_count=10127 68 52 35 39 36 53 35 44 136 47 390 50 235 48
internal_value=0 1589.78 1109.84 -26.6012 1621.22 354.201 -31.3849 182.45 -32.9225 221.621 -34.6316 45.6051 -10.1189 24.7043
internal_count=11395 191 139 11204 71 139 11065 79 10986 86 10752 234 625 184
shrinkage=0.01


Tree=9
num_leaves=15
num_cat=0
split_feature=43 27 102 111 30 87 87 27 45 45 80 43 71 115
split_gain=4.80896e+08 1.15263e+08 3.71981e+07 2.00178e+07 1.34552e+07 4.21891e+06 3.55601e+06 1.83044e+06 1.71151e+06 841538 429625 403548 164900 169717
threshold=1571.0000000000002 2339.0000000000005 1837.751231527094 204.00000000000003 1041.997536945813 745.50000000000011 778.50000000000011 1.0000000180025095e-35 30.500000000000004 42.500000000000007 100.50000000000001 26.500000000000004 160.50000000000003 109.07142857142858
decision_type=2 2 2 2 2 2 2 2 2 2 2 2 2 2
left_child=3 2 -2 5 -4 8 -5 -7 11 -9 -10 -1 -13 -14
right_child=1 -3 4 6 -6 7 -8 9 10 -11 -12 12 13 -15
leaf_value=-0.3568310182376 5.7014272485059854 28.439700778080869 11.635069527762278 2.1818145839691163 20.342465023464626 3.5133043662479948 5.8827930450439458 -0.17821424090585045 0.3182317393891258 1.894144285387463 1.4516613693237304 -0.17162250543236734 0.82384874224662785 0.010134530846824807
leaf_count=10217 68 52 35 50 36 35 54 43 204 36 40 400 36 89
internal_value=0 1573.88 1098.74 -26.3352 1605.01 -30.4266 410.348 160.958 -32.4126 76.6152 50.404 -34.2937 -7.25495 24.4484
internal_count=11395 191 139 11204 71 11100 104 114 10986 79 244 10742 525 125
shrinkage=0.01


Tree=10
num_leaves=15
num_cat=0
split_feature=43 27 43 0 89 81 111 84 102 93 45 43 43 113
split_gain=4.70631e+08 8.58156e+07 3.8572e+07 3.37784e+07 1.20306e+07 4.01447e+06 3.66181e+06 2.20375e+06 752907 453223 293757 157765 112799 107448
threshold=1644.5000000000002 2339.0000000000005 428.00000000000006 1498.5000000000002 1916.5000000000002 1312.5000000000002 52.500000000000007 410.50000000000006 79.283251231527103 1237.5000000000002 78.500000000000014 30.500000000000004 20.500000000000004 24.550000000000004
decision_type=2 2 2 2 2 2 2 2 2 2 2 2 2 2
left_child=2 3 6 -2 5 -4 8 10 12 11 -8 -10 -1 -13
right_child=1 -3 4 -5 -6 -7 7 -9 9 -11 -12 13 -14 -15
leaf_value=-0.3566977865334417 6.6313707559248982 28.145803881425124 1.0726033696532249 18.664104184882586 8.807589331917141 4.5875910882200257 0.22438559601897176 3.2817658640609846 -0.21503338304391276 1.1176700172159408 1.1141496511985516 0.4732940467133902 -0.19566237535908981 0.0069543481484355251
leaf_count=9882 51 52 64 43 46 66 103 36 260 36 58 69 455 174
internal_value=0 1783.79 -23.2311 1213.57 441.237 285.714 -30.6136 104.506 -33.061 3.37566 54.4922 -4.38197 -34.961 13.9372
internal_count=11395 146 11249 94 176 130 11073 197 10876 539 161 503 10337 243
shrinkage=0.01


Tree=11
num_leaves=15
num_cat=0
split_feature=34 43 23 34 103 111 30 87 102 38 11 114 0 43
split_gain=4.84713e+08 8.20416e+07 5.1173e+07 1.83309e+07 9.10866e+06 4.01655e+06 3.34485e+06 1.92556e+06 676044 660099 600427 254024 180297 128361
threshold=687.57142857142878 2622.5000000000005 -55.327586206896541 211.64285714285717 138.50000000000003 443.00000000000006 23.049261083743847 691.00000000000011 86.492610837438448 21.500000000000004 247.50000000000003 29205000.000000004 45.500000000000007 34.500000000000007
decision_type=2 2 2 2 2 2 2 2 2 2 2 2 2 2
left_child=3 4 -3 6 -2 9 8 10 -1 -5 12 13 -8 -10
right_child=1 2 -4 5 -6 -7 7 -9 11 -11 -12 -13 -14 -15
leaf_value=-0.34626690000714683 5.6517321438259547 31.62603578567505 16.451107207489013 1.7586523934333556 12.305918855667114 6.3306408691406251 -0.1121002967043927 2.9254660271309518 -0.206057745047978 3.4464701054547282 1.3971537369602132 0.67594351378354167 0.53443673883057852 0.14092445801825951
leaf_count=10339 36 40 50 62 48 35 95 37 231 37 53 55 79 198
internal_value=0 1656.17 2319.55 -25.7605 945.412 341.887 -30.2039 81.0085 -32.9167 238.945 46.5287 3.61169 18.1442 -4.59121
internal_count=11395 174 90 11221 84 134 11087 264 10823 99 227 484 174 429
shrinkage=0.01


Tree=12
num_leaves=15
num_cat=0
split_feature=43 23 43 45 89 81 111 2 102 93 25 43 43 113
split_gain=4.52288e+08 8.36895e+07 3.70232e+07 3.26776e+07 1.15722e+07 3.87397e+06 3.53113e+06 1.32746e+06 719282 434323 433642 150538 109948 105318
threshold=1644.5000000000002 -66.482758620689637 428.00000000000006 1435.5000000000002 1916.5000000000002 1312.5000000000002 52.500000000000007 420.50000000000006 79.283251231527103 1237.5000000000002 67.500000000000014 30.500000000000004 20.500000000000004 24.550000000000004
decision_type=2 2 2 2 2 2 2 2 2 2 2 2 2 2
left_child=2 -2 6 -3 5 -4 8 10 12 11 -8 -10 -1 -13
right_child=1 3 4 -5 -6 -7 7 -9 9 -11 -12 13 -14 -15
leaf_value=-0.34966813886982606 28.304972788492837 6.5303969176292425 1.0443915467709304 18.081736119588214 8.6334086882549794 4.4973221731185911 0.23753801577955214 2.4932710710992207 -0.2111502325649445 1.0931098002526496 1.4439797322343035 0.46563987508200216 -0.19068084427976345 0.0039435291007674971
leaf_count=9882 48 50 64 48 46 66 109 47 260 36 41 69 455 174
internal_value=0 1748.69 -22.7739 1218.82 432.273 279.742 -30.0066 102.679 -32.41 3.20375 56.7299 -4.3904 -34.267 13.5042
internal_count=11395 146 11249 98 176 130 11073 197 10876 539 150 503 10337 243
shrinkage=0.01


Tree=13
num_leaves=15
num_cat=0
split_feature=43 27 43 0 105 9 111 84 81 102 93 45 43 43
split_gain=4.43288e+08 8.20269e+07 3.62865e+07 3.22462e+07 1.11276e+07 4.23265e+06 3.46086e+06 2.12032e+06 1.36764e+06 704968 425680 277503 147543 107760
threshold=1644.5000000000002 2339.0000000000005 428.00000000000006 1498.5000000000002 896.50000000000011 136.92857142857147 52.500000000000007 410.50000000000006 1230.0000000000002 79.283251231527103 1237.5000000000002 78.500000000000014 30.500000000000004 20.500000000000004
decision_type=2 2 2 2 2 2 2 2 2 2 2 2 2 2
left_child=2 3 6 -2 8 -6 9 11 -4 13 12 -8 -11 -1
right_child=1 -3 4 -5 5 -7 7 -9 -10 10 -12 -13 -14 -15
leaf_value=-0.34617147192277542 6.3590176881762117 27.389749979606041 1.0019984715671864 18.115678427053055 4.9617792850991957 9.5398527558644624 0.2144096900537176 3.2104871630668641 3.4971045455932619 -0.20903872796176717 1.0821786523362 1.0792074589893736 0.13369206883105231 -0.18877403414934096
leaf_count=9882 51 52 59 43 46 36 103 36 35 260 36 58 243 455
internal_value=0 1731.2 -22.5461 1173.71 427.951 697.167 -29.7066 101.653 193.103 -32.0859 3.17171 52.5952 -4.3465 -33.9243
internal_count=11395 146 11249 94 176 82 11073 197 94 10876 539 161 503 10337
shrinkage=0.01


Tree=14
num_leaves=15
num_cat=0
split_feature=43 23 0 43 89 81 111 84 102 93 0 43 113 43
split_gain=4.34466e+08 8.13737e+07 3.81177e+07 3.55644e+07 1.11774e+07 3.71158e+06 3.39198e+06 2.07812e+06 690939 417209 272850 144607 136779 105615
threshold=1644.5000000000002 -66.482758620689637 1498.5000000000002 428.00000000000006 1916.5000000000002 1312.5000000000002 52.500000000000007 410.50000000000006 79.283251231527103 1237.5000000000002 68.500000000000014 30.500000000000004 41.000000000000007 20.500000000000004
decision_type=2 2 2 2 2 2 2 2 2 2 2 2 2 2
left_child=3 -2 -3 6 5 -5 8 10 13 11 -8 -10 -12 -1
right_child=1 2 -4 4 -6 -7 7 -9 9 -11 12 -13 -14 -15
leaf_value=-0.34270974870319548 27.80626234551271 5.4174247798513866 17.901098306693282 1.0217494978010655 8.4732128367216699 4.4015367276740793 0.14102280919579255 3.178382319145733 -0.20694834347842977 1.0713569132818117 0.54860068114180316 0.13235514781479973 1.4087677200635276 -0.18688629352088487
leaf_count=9882 48 47 51 64 46 66 87 36 260 36 38 243 36 455
internal_value=0 1713.89 1191.4 -22.3207 423.671 273.764 -29.4095 100.636 -31.765 3.14 52.0692 -4.30304 96.706 -33.5851
internal_count=11395 146 98 11249 176 130 11073 197 10876 539 161 503 74 10337
shrinkage=0.01


Tree=15
num_leaves=15
num_cat=0
split_feature=34 34 34 2 30 30 87 82 61 84 87 34 111 13
split_gain=3.9751e+08 5.42275e+07 2.86594e+07 1.69828e+07 7.33974e+06 3.7155e+06 2.39287e+06 1.40606e+06 1.00084e+06 481308 333397 201795 116539 106739
threshold=856.56650246305423 2343.6379310344832 264.15270935960598 1944.5000000000002 445.81527093596065 23.049261083743847 768.50000000000011 15.69458128078818 43.500000000000007 398.00000000000006 88.500000000000014 82.302955665024641 14.500000000000002 21800.000000000004
decision_type=2 2 2 2 2 2 2 2 2 2 2 2 2 2
left_child=2 3 5 -2 7 8 9 -4 10 11 -1 -7 -12 -14
right_child=1 -3 4 -5 -6 6 -8 -9 -10 -11 12 -13 13 -15
leaf_value=-0.33479442102703688 6.6040684385557435 24.612474416219271 1.7286711625177034 15.334804660252162 8.2558415832519536 0.036861661211365748 3.3092767483847485 4.0681881332397465 1.056060268755229 1.3183112635995662 -0.17851569809501977 0.76284753322601317 -0.0031112854771835857 0.59991084159989105
leaf_count=10203 37 52 49 56 35 126 35 54 53 56 417 55 129 38
internal_value=0 1643.41 -22.9546 1186.13 429.958 -28.5793 86.8571 295.521 -31.4758 50.8129 -32.1494 25.7465 -8.91195 13.4103
internal_count=11395 145 11250 93 138 11112 272 103 10840 237 10787 181 584 167
shrinkage=0.01


Tree=16
num_leaves=15
num_cat=0
split_feature=61 34 27 105 43 84 84 82 101 91 45 24 43 15
split_gain=3.89962e+08 5.83672e+07 4.97582e+07 1.817e+07 3.78202e+06 2.51575e+06 1.40703e+06 926374 911226 774774 418887 267741 238808 128965
threshold=1141.5000000000002 264.15270935960598 2598.0000000000005 2167.0000000000005 66.500000000000014 1018.5000000000001 295.00000000000006 23.406403940886705 -1.4999999999999998 1.0000000180025095e-35 78.500000000000014 4.785714285714314 26.500000000000004 35.050000000000004
decision_type=2 2 2 2 2 2 2 2 2 2 2 2 2 2
left_child=1 4 -2 5 12 7 10 -3 -8 -10 13 -12 -1 -6
right_child=2 3 -4 -5 6 -7 8 -9 9 -11 11 -13 -14 -15
leaf_value=-0.33251804814392361 14.467111356295073 1.5849108795248545 29.256203130449567 10.270481519345884 -0.1524454795213262 5.4943498445168517 2.6147168741669766 3.6237351872370795 0.15944200835881694 1.8517036839822927 0.27889087241036553 1.5158015691212245 -0.09274335173583767 0.3190656263381243
leaf_count=10206 65 52 35 54 157 39 43 39 62 48 35 35 433 92
internal_value=0 -19.1392 1964.33 539.471 -28.3899 336.939 59.2022 245.869 138.039 89.7883 21.3901 89.7346 -32.2759 2.17675
internal_count=11395 11295 100 184 11111 130 472 91 153 110 319 70 10639 249
shrinkage=0.01


Tree=17
num_leaves=15
num_cat=0
split_feature=61 34 43 81 43 84 84 97 30 0 45 43 102 15
split_gain=3.82202e+08 5.72057e+07 4.90539e+07 1.85986e+07 3.70676e+06 2.51408e+06 1.37903e+06 1.14622e+06 985324 1.7078e+06 410551 234056 227615 126399
threshold=1141.5000000000002 264.15270935960598 4045.5000000000005 5961.5000000000009 66.500000000000014 1018.5000000000001 295.00000000000006 77.533500000000018 11.248768472906406 53.500000000000007 78.500000000000014 26.500000000000004 166.28325123152712 35.050000000000004
decision_type=2 2 2 2 2 2 2 2 2 2 2 2 2 2
left_child=1 4 -2 5 11 7 10 -3 -8 -10 13 -1 -12 -6
right_child=2 3 -4 -5 6 -7 8 -9 9 -11 12 -13 -14 -15
leaf_value=-0.32919285450607405 13.846654129028321 3.7409947758454543 28.206157586513424 10.928451841566298 -0.15092102919414546 5.7243590003565741 0.19745908649600283 1.6094432935213709 3.7166824609892712 1.0047626801677372 0.3181410007476807 -0.091815919905694474 1.4586045286314828 0.31587496919203145
leaf_count=10206 61 52 39 45 157 38 49 49 35 69 35 433 35 92
internal_value=0 -18.9478 1944.69 534.076 -28.106 353.18 58.6102 270.688 136.659 191.743 21.1762 -31.9532 88.8373 2.15498
internal_count=11395 11295 100 184 11111 139 472 101 153 104 319 10639 70 249
shrinkage=0.01


Tree=18
num_leaves=15
num_cat=0
split_feature=34 27 34 2 30 43 2 27 82 55 0 43 18 87
split_gain=3.74771e+08 6.21455e+07 2.68468e+07 8.85262e+06 6.95301e+06 3.80645e+06 1.39129e+06 1.53621e+06 1.32571e+06 498713 255301 229398 193562 192196
threshold=856.56650246305423 2339.0000000000005 264.15270935960598 1944.5000000000002 445.81527093596065 66.500000000000014 212.50000000000003 1.0000000180025095e-35 15.69458128078818 30.172619047619285 69.500000000000014 26.500000000000004 11.250000000000002 295.50000000000006
decision_type=2 2 2 2 2 2 2 2 2 2 2 2 2 2
left_child=2 3 5 -2 8 11 12 -8 -4 10 -9 -1 -7 -14
right_child=1 -3 4 -5 -6 6 7 9 -10 -11 -12 -13 13 -15
leaf_value=-0.32590092353435907 7.9529448118663968 25.410518886484997 1.6612388331549508 14.026323432922364 8.0113123190743583 -0.26913027531498079 2.8344903358883329 0.10257696475738134 3.9329217649389201 1.7703352127890839 0.98756570260439602 -0.090897760521319385 0.10271830777897209 0.88021721116678664
leaf_count=10206 42 47 49 56 35 91 45 78 54 38 56 433 122 43
internal_value=0 1595.72 -22.2872 1142.34 416.068 -27.7311 60.0464 118.954 285.222 75.9171 47.2423 -31.6336 10.1133 30.5339
internal_count=11395 145 11250 98 138 11112 473 217 103 172 134 10639 256 165
shrinkage=0.01


Tree=19
num_leaves=15
num_cat=0
split_feature=34 43 34 81 89 43 30 84 30 0 30 43 45 34
split_gain=3.67313e+08 5.57703e+07 2.63125e+07 1.36366e+07 6.90616e+06 3.7307e+06 1.72846e+06 1.26341e+06 959008 1.67214e+06 425765 224833 162683 113772
threshold=856.56650246305423 4045.5000000000005 264.15270935960598 9181.5000000000018 2146.0000000000005 66.500000000000014 189.38423645320199 295.00000000000006 11.248768472906406 53.500000000000007 103.74630541871925 26.500000000000004 43.500000000000007 70.52216748768474
decision_type=2 2 2 2 2 2 2 2 2 2 2 2 2 2
left_child=2 3 5 -2 6 11 -4 10 -9 -10 12 -1 -7 -14
right_child=1 -3 4 -5 -6 7 -8 8 9 -11 -12 -13 13 -15
leaf_value=-0.32264191326727043 8.7412475088087191 25.675002024580795 1.4551167142147921 16.049901267157662 7.9567086770193924 -0.078944188294450893 4.0490211818836359 0.1884804690249112 3.6656961438341864 0.98223846158255701 1.2458880595903139 -0.089988784128090263 0.014221267671812149 0.68614225853057131
leaf_count=10206 59 41 49 45 35 178 54 49 35 69 37 433 42 63
internal_value=0 1579.76 -22.0643 1190.36 411.908 -27.4538 281.503 59.446 134.189 188.533 23.7094 -31.3173 10.5202 41.7374
internal_count=11395 145 11250 104 138 11112 103 473 153 104 320 10639 283 105
shrinkage=0.01


Tree=20
num_leaves=15
num_cat=0
split_feature=34 43 107 34 102 82 43 105 30 53 25 43 45 111
split_gain=4.24667e+08 7.99696e+07 4.37662e+07 1.58622e+07 6.46043e+06 3.62504e+06 2.62072e+06 964199 672826 486321 213756 205030 152565 134616
threshold=687.57142857142878 2268.0000000000005 262.71428571429232 211.64285714285717 2380.2512315270938 16.805418719211826 62.500000000000007 1130.0000000000002 92.987684729064057 19735.825419281206 95.500000000000014 20.500000000000004 33.500000000000007 84.500000000000014
decision_type=2 2 2 2 2 2 2 2 2 2 2 2 2 2
left_child=3 4 -3 6 -2 10 11 8 12 -10 -5 -1 -8 -14
right_child=1 2 -4 5 -6 -7 7 -9 9 -11 -12 -13 13 -15
leaf_value=-0.32029959217520876 5.2157547865973584 15.724935899353028 29.663349188827887 1.1367428272792273 10.871730748052183 5.031994101206462 -0.030587660173090492 2.0517500083105906 0.35075537007195606 1.9845486660380112 2.2342398866017663 -0.12219359498305378 0.19596522607114339 0.84607825162675654
leaf_count=10073 36 50 41 35 46 60 205 35 35 38 36 551 109 45
internal_value=0 1555.09 2200.49 -23.6937 838.862 322.243 -27.7797 45.5383 32.6048 120.122 169.322 -31.0025 14.8087 38.5933
internal_count=11395 173 91 11222 82 131 11091 467 432 73 71 10624 359 154
shrinkage=0.01


Tree=21
num_leaves=15
num_cat=0
split_feature=34 43 107 34 102 111 43 105 38 30 21 43 45 111
split_gain=4.16217e+08 7.83782e+07 4.28953e+07 1.55466e+07 6.33187e+06 3.0217e+06 2.56856e+06 945011 710666 659436 304014 200950 149528 131937
threshold=687.57142857142878 2268.0000000000005 262.71428571429232 211.64285714285717 2380.2512315270938 482.50000000000006 62.500000000000007 1130.0000000000002 21.500000000000004 92.987684729064057 66.978000000000023 20.500000000000004 33.500000000000007 84.500000000000014
decision_type=2 2 2 2 2 2 2 2 2 2 2 2 2 2
left_child=3 4 -3 6 -2 8 11 9 -5 12 -11 -1 -8 -14
right_child=1 2 -4 5 -6 -7 7 -9 -10 10 -12 -13 13 -15
leaf_value=-0.3170966171936957 5.1635972150166838 15.567686380004883 29.366715798726897 1.5143690530459086 10.763013338835343 5.705515579138484 -0.030281781208224414 2.0312324951716834 3.2487600508190337 1.8257660769771886 0.53497358027431707 -0.12097165505758431 0.19400557492851117 0.83761747614542648
leaf_count=10073 36 50 41 54 46 35 205 35 42 37 36 551 109 45
internal_value=0 1539.54 2178.48 -23.4567 830.473 319.021 -27.5019 45.0829 227.317 32.2787 118.921 -30.6925 14.6606 38.2074
internal_count=11395 173 91 11222 82 131 11091 467 96 432 73 10624 359 154
shrinkage=0.01


Tree=22
num_leaves=15
num_cat=0
split_feature=34 43 107 34 25 111 43 105 46 30 53 43 61 111
split_gain=4.07934e+08 7.68185e+07 4.20417e+07 1.52372e+07 6.25313e+06 2.96157e+06 2.51745e+06 926206 791423 646314 470923 196951 149414 120494
threshold=687.57142857142878 2268.0000000000005 262.71428571429232 211.64285714285717 504.50000000000006 482.50000000000006 62.500000000000007 1130.0000000000002 21.78571428571443 92.987684729064057 19735.825419281206 20.500000000000004 13.500000000000002 84.500000000000014
decision_type=2 2 2 2 2 2 2 2 2 2 2 2 2 2
left_child=3 4 -3 6 -2 8 11 9 -5 12 -11 -1 -8 -14
right_child=1 2 -4 5 -6 -7 7 -9 -10 10 -12 -13 13 -15
leaf_value=-0.31392565011901968 5.1762652670370564 15.412009536743165 29.073048624178259 1.5471275555292767 10.725698147243925 5.6484604227883475 -0.076071375295068272 2.0109202316147941 3.4226099861992729 0.34042288868767878 1.9481439144360391 -0.11976193850707878 0.18445114999801127 0.75059951408236625
leaf_count=10073 37 50 41 60 45 35 165 35 36 35 38 551 143 51
internal_value=0 1524.15 2156.7 -23.2222 822.169 315.83 -27.2269 44.6321 225.043 31.9559 117.732 -30.3856 14.514 33.3284
internal_count=11395 173 91 11222 82 131 11091 467 96 432 73 10624 359 194
shrinkage=0.01


Tree=23
num_leaves=15
num_cat=0
split_feature=34 43 107 34 102 111 43 105 46 80 25 54 43 85
split_gain=3.99816e+08 7.52898e+07 4.1205e+07 1.4934e+07 6.15211e+06 2.90263e+06 2.46735e+06 907774 775673 552224 269592 218338 193032 106238
threshold=687.57142857142878 2268.0000000000005 262.71428571429232 211.64285714285717 2380.2512315270938 482.50000000000006 62.500000000000007 1130.0000000000002 21.78571428571443 128.50000000000003 44.500000000000007 168.7142857142853 20.500000000000004 15.828538895000003
decision_type=2 2 2 2 2 2 2 2 2 2 2 2 2 2
left_child=3 4 -3 6 -2 8 12 9 -5 10 13 -12 -1 -8
right_child=1 2 -4 5 -6 -7 7 -9 -10 -11 11 -13 -14 -15
leaf_value=-0.31078638360253408 5.0432419437832303 15.257889540100098 28.782318453905059 1.5316563038031259 10.562603066485861 5.5919757423400887 -0.18678249101837477 1.9908110066822595 3.388383878601922 1.3648551737467449 0.22162137186085737 1.1705963027477264 -0.11856432086867559 0.20231189763052226
leaf_count=10073 36 50 41 60 46 35 120 35 36 45 54 44 551 169
internal_value=0 1508.91 2135.13 -22.99 813.947 312.672 -26.9546 44.1858 222.793 31.6364 19.4446 64.7692 -30.0817 4.07502
internal_count=11395 173 91 11222 82 131 11091 467 96 432 387 98 10624 289
shrinkage=0.01


Tree=24
num_leaves=15
num_cat=0
split_feature=34 43 100 34 102 82 43 2 27 24 61 71 0 59
split_gain=3.9186e+08 7.37915e+07 3.96646e+07 1.46368e+07 6.02968e+06 3.46167e+06 2.41825e+06 895442 2.335e+06 302881 207631 189995 177191 118973
threshold=687.57142857142878 2268.0000000000005 17.500000000000004 211.64285714285717 2380.2512315270938 16.805418719211826 62.500000000000007 174.50000000000003 1.0000000180025095e-35 141.57142857143103 175.00000000000003 63.500000000000007 22.500000000000004 30.483606557377055
decision_type=2 2 2 2 2 2 2 2 2 2 2 2 2 2
left_child=3 4 -3 6 -2 10 11 12 -9 -10 -5 -1 -8 -14
right_child=1 2 -4 5 -6 -7 7 8 9 -11 -12 -13 13 -15
leaf_value=-0.30782196051462984 4.9928096283806696 15.547503152523401 28.934793628893399 1.0526516179357257 10.456977051444676 4.8637733711401623 -0.25968125974493367 3.0609757525746417 0.17883556134270545 1.191152357302214 2.1343093395233157 -0.1192066729746442 0.094831023693371291 0.74248578236653262
leaf_count=10060 36 53 38 35 46 60 112 41 133 38 36 564 104 39
internal_value=0 1493.82 2113.78 -22.7601 805.807 309.545 -26.685 43.7439 91.7684 40.3795 160.11 -29.7809 3.81767 27.1464
internal_count=11395 173 91 11222 82 131 11091 467 212 171 71 10624 255 143
shrinkage=0.01


Tree=25
num_leaves=15
num_cat=0
split_feature=34 0 27 81 45 71 43 43 82 111 43 81 54 80
split_gain=3.94611e+08 4.96402e+07 4.76122e+07 9.33863e+06 9.13928e+06 2.82682e+06 2.0912e+06 1.40744e+06 1.36727e+06 448622 256972 204000 266401 172751
threshold=1221.5714285714289 508.00000000000006 2339.0000000000005 1230.0000000000002 709.00000000000011 2094.5000000000005 248.50000000000003 85.500000000000014 12.30788177339902 156.50000000000003 26.500000000000004 234.50000000000003 98.78571428571469 6.5000000000000009
decision_type=2 2 2 2 2 2 2 2 2 2 2 2 2 2
left_child=1 3 -2 7 -3 6 -5 10 -8 11 -1 -9 -13 -14
right_child=2 4 -4 5 -6 -7 8 9 -10 -11 -12 12 13 -15
leaf_value=-0.30367244511965152 13.604085573138613 4.549406047511745 27.126866075382679 0.11595595714486676 11.626668489244249 4.3052895276071999 1.2227653838103671 -0.10000251191156405 3.6226523763079972 1.3077236529721155 -0.061301633764050199 1.0907334473285268 -0.27726784731544879 0.51619996150626857
leaf_count=10224 66 37 43 81 36 38 53 111 43 45 457 47 46 68
internal_value=0 -17.9952 1893.88 -23.3464 803.956 183.058 129.928 -27.3814 229.771 38.2836 -29.3302 22.9822 45.7216 19.6029
internal_count=11395 11286 109 11213 73 215 177 10998 96 317 10681 272 161 114
shrinkage=0.01


Tree=26
num_leaves=15
num_cat=0
split_feature=34 0 27 111 45 71 99 45 43 86 64 29 29 34
split_gain=3.86759e+08 4.86524e+07 4.66647e+07 9.1528e+06 8.95741e+06 2.99231e+06 1.88954e+06 1.39026e+06 543276 415265 366865 169966 323286 79545.5
threshold=1221.5714285714289 508.00000000000006 2339.0000000000005 168.50000000000003 709.00000000000011 1242.0000000000002 1700.5714285714282 78.500000000000014 26.500000000000004 0.53448275862068984 7.5000000000000009 1.8055555555555574 3.0555555555555864 39.197044334975381
decision_type=2 2 2 2 2 2 2 2 2 2 2 2 2 2
left_child=1 3 -2 5 -3 7 10 8 -1 -9 -5 -10 -13 -14
right_child=2 4 -4 6 -6 -7 -8 9 11 -11 -12 12 13 -15
leaf_value=-0.30042649437392965 13.468044785008285 4.5039119802938927 26.855597392237463 1.0113418093705788 11.510401984320747 2.3722571603641955 4.4879347163609093 0.41058244599614824 -0.098631840385668121 1.7203816507515068 2.3434319125522269 1.0772967370560296 -0.16846916154121297 0.35461382100763528
leaf_count=10239 66 37 43 39 36 43 35 70 543 37 44 38 79 46
internal_value=0 -17.8153 1874.94 -23.1129 795.917 -26.0593 253.925 -27.0837 -28.1926 86.3504 171.751 -1.36213 26.9573 2.40254
internal_count=11395 11286 109 11213 73 11095 118 11052 10945 107 83 706 163 125
shrinkage=0.01


Tree=27
num_leaves=15
num_cat=0
split_feature=34 43 34 34 103 93 43 80 29 97 43 27 102 34
split_gain=3.79193e+08 7.91082e+07 1.97391e+07 1.44736e+07 3.22877e+06 2.81241e+06 1.62039e+06 526599 358305 530888 258955 136010 85692.2 84902.8
threshold=687.57142857142878 4045.5000000000005 1339.0000000000002 264.15270935960598 39.500000000000007 1237.5000000000002 95.500000000000014 117.00000000000001 1.9444444444444697 85.537500000000009 24.500000000000004 7.5000000000000009 113.98029556650248 20.586206896551726
decision_type=2 2 2 2 2 2 2 2 2 2 2 2 2 2
left_child=3 2 -2 5 -5 6 10 8 11 -10 -1 -8 -12 -14
right_child=1 -3 -4 4 -6 -7 7 -9 9 -11 12 -13 13 -15
leaf_value=-0.29796742397106857 7.3306021580551617 27.094020102896344 15.326882668856918 1.9046144062678019 5.4047583338047591 1.8878552007479747 -0.29599480428813413 1.2763511247554069 1.7255992892639977 0.0075613426517795873 -0.14731219416516997 0.23088199295614276 0.56712340518406457 -0.002277235434605525
leaf_count=10189 66 41 58 60 47 61 81 59 35 37 398 124 35 104
internal_value=0 1505.23 1107.08 -21.8247 344.206 -25.3458 -26.5266 41.8554 23.5847 84.2719 -28.6687 2.27014 -7.26588 14.1097
internal_count=11395 165 124 11230 107 11123 11062 336 277 72 10726 205 537 139
shrinkage=0.01


Tree=28
num_leaves=15
num_cat=0
split_feature=34 43 34 34 38 71 43 80 29 55 43 111 93 102
split_gain=3.71647e+08 7.75339e+07 1.93462e+07 1.41856e+07 3.25937e+06 2.77955e+06 1.78747e+06 649708 348651 442809 262977 149678 126806 85327.5
threshold=687.57142857142878 4045.5000000000005 1339.0000000000002 264.15270935960598 23.500000000000004 1242.0000000000002 95.500000000000014 117.00000000000001 1.9444444444444697 -1.8392857142857542 26.500000000000004 22.500000000000004 157.50000000000003 113.98029556650248
decision_type=2 2 2 2 2 2 2 2 2 2 2 2 2 2
left_child=3 2 -2 5 -5 6 10 8 11 -10 -1 -8 -13 -12
right_child=1 -3 -4 4 -6 -7 7 -9 9 -11 13 12 -14 -15
leaf_value=-0.29445823476494193 7.2572960743759625 26.823080131716843 15.17361383109257 1.8034384648553257 5.3064912695787392 2.2866112924176596 -0.26684933322732168 1.3650993381984651 0.0053073055062975204 1.5454998994469642 -0.1404999858682473 -0.086466221449510106 0.57970396947956859 0.15165603837159147
leaf_count=10239 66 41 58 58 49 43 93 63 35 40 356 53 62 139
internal_value=0 1490.18 1096.01 -21.6065 340.764 -25.0924 -26.0771 44.6673 24.2218 82.6743 -28.3575 3.14517 27.2686 -5.84602
internal_count=11395 165 124 11230 107 11123 11080 346 283 75 10734 208 115 495
shrinkage=0.01


Tree=29
num_leaves=15
num_cat=0
split_feature=34 43 34 34 103 71 43 23 101 43 80 71 13 34
split_gain=3.64251e+08 7.5991e+07 1.89613e+07 1.39033e+07 3.10297e+06 2.72424e+06 1.7534e+06 604699 578568 330005 198263 154263 101065 75715.4
threshold=687.57142857142878 4045.5000000000005 1339.0000000000002 264.15270935960598 39.500000000000007 1242.0000000000002 115.00000000000001 9.5689655172413808 6.3448275862068968 26.500000000000004 117.00000000000001 153.50000000000003 29050.000000000004 39.197044334975381
decision_type=2 2 2 2 2 2 2 2 2 2 2 2 2 2
left_child=3 2 -2 5 -5 6 9 10 -9 -1 11 -8 13 -11
right_child=1 -3 -4 4 -6 -7 7 8 -10 12 -12 -13 -14 -15
leaf_value=-0.29151365091080972 7.1847231535478073 26.554849168730943 15.021877775521114 1.8663662077188492 5.2976458312095485 2.2637451821704242 -0.18569739514184228 2.2021763640131269 0.54546542819940824 -0.14475242527723123 0.78332697264526208 0.495911899178612 0.47899567358834405 0.13611151187907994
leaf_count=10239 66 41 58 60 47 43 103 35 53 393 46 49 35 127
internal_value=0 1475.28 1085.05 -21.3904 337.356 -24.8414 -25.8164 51.4656 120.438 -27.864 20.8111 3.40319 -4.11472 -7.61568
internal_count=11395 165 124 11230 107 11123 11080 286 88 10794 198 152 555 520
shrinkage=0.01


Tree=30
num_leaves=15
num_cat=0
split_feature=27 27 71 24 93 84 111 29 102 27 108 7 80 111
split_gain=3.23842e+08 5.41649e+07 2.05941e+07 1.4173e+07 6.55096e+06 5.63275e+06 3.25574e+06 1.45164e+06 565122 438165 213229 293266 100928 93723.6
threshold=640.50000000000011 2339.0000000000005 3839.5000000000005 274.78571428570746 589.00000000000011 1322.0000000000002 51.500000000000007 6.7361111111111578 57.706896551724149 165.50000000000003 19559000.000000004 9.0000000000000018 77.500000000000014 15.500000000000002
decision_type=2 2 2 2 2 2 2 2 2 2 2 2 2 2
left_child=3 2 5 6 -5 -2 8 9 -1 12 13 -12 -8 -10
right_child=1 -3 -4 4 -6 -7 7 -9 10 -11 11 -13 -14 -15
leaf_value=-0.28892904361901034 3.9038480350706313 22.08159138229658 15.502238556089855 1.4376874843391321 6.6798949053287506 9.389235792893631 0.1233047806637714 2.6850876961256329 -0.14471169119223881 1.3019982242995294 0.87227695220901125 -0.11698620993515541 0.69883093795606077 0.16583102266736854
leaf_count=10216 36 53 42 59 40 39 111 38 414 58 62 58 42 127
internal_value=0 1369.49 989.584 -21.1193 355.575 675.625 -24.4712 88.5891 -27.0594 56.1866 1.27774 39.4133 28.1292 -7.18116
internal_count=11395 170 117 11225 99 75 11126 249 10877 211 661 120 153 541
shrinkage=0.01


Tree=31
num_leaves=15
num_cat=0
split_feature=34 45 34 38 89 45 30 93 102 43 3 91 107 45
split_gain=3.37841e+08 4.15047e+07 1.81002e+07 1.10589e+07 4.55554e+06 2.611e+06 1.25435e+06 1.16931e+06 681903 563277 176041 133096 330357 114378
threshold=856.56650246305423 1850.0000000000002 264.15270935960598 132.50000000000003 2146.0000000000005 64.500000000000014 189.38423645320199 580.50000000000011 62.330049261083758 252.00000000000003 196.92857142857147 1.0000000180025095e-35 12.571428571428562 17.500000000000004
decision_type=2 2 2 2 2 2 2 2 2 2 2 2 2 2
left_child=2 3 5 -2 6 8 -4 10 -1 11 -7 13 -13 -10
right_child=1 -3 4 -5 -6 7 -8 -9 9 -11 -12 12 -14 -15
leaf_value=-0.2846509440240923 6.8054973640441894 21.566299383229225 1.1059372423453764 13.829139624202954 6.5621666728428432 0.3161005420366238 3.3805041281382247 2.6090285141600504 -0.18650010995360408 1.0980651053469233 1.1395897006988525 -0.096933964909733952 1.0821786971432823 0.15525016029866842
leaf_count=10270 40 58 44 51 35 87 54 36 397 47 37 74 35 130
internal_value=0 1495.54 -20.1888 1074.18 346.53 -24.5777 235.927 102.244 -26.4303 4.16606 56.1819 -3.6407 28.168 -10.2197
internal_count=11395 149 11246 91 133 11113 98 160 10953 683 124 636 109 527
shrinkage=0.01


Tree=32
num_leaves=15
num_cat=0
split_feature=34 43 38 34 89 111 30 84 43 102 0 91 8 2
split_gain=3.31118e+08 4.03662e+07 4.35223e+07 1.774e+07 4.46488e+06 2.37524e+06 1.22939e+06 980249 750249 303857 146071 141206 355965 69555.1
threshold=856.56650246305423 2268.0000000000005 132.50000000000003 264.15270935960598 2146.0000000000005 51.500000000000007 189.38423645320199 410.50000000000006 285.50000000000006 62.330049261083758 50.500000000000007 1.0000000180025095e-35 8.5000000000000018 112.50000000000001
decision_type=2 2 2 2 2 2 2 2 2 2 2 2 2 2
left_child=3 -2 -3 5 6 8 -5 10 9 -1 -7 -11 -13 -12
right_child=1 2 -4 4 -6 7 -8 -9 -10 11 13 12 -14 -15
leaf_value=-0.28289862877813826 8.5542123838330877 10.485295122419084 24.854256563186645 1.0948778731172735 6.4965449572971892 0.014746947445919817 3.3466990912402115 1.8150886683212593 0.94550943879520188 -0.12008151543754891 0.36050935969352721 -0.13772379104770832 1.1065973326138088 0.90566095936704771
leaf_count=10246 61 35 53 44 35 71 54 64 51 485 50 67 35 44
internal_value=0 1480.58 1913.93 -19.9869 343.064 -24.3319 233.568 76.4573 -26.4525 -27.0222 35.7101 -4.89542 28.9249 61.5687
internal_count=11395 149 88 11246 133 11113 98 229 10884 10833 165 587 102 94
shrinkage=0.01


Tree=33
num_leaves=15
num_cat=0
split_feature=34 43 38 34 89 111 30 96 43 102 0 82 111 75
split_gain=3.24528e+08 3.95629e+07 4.26562e+07 1.7387e+07 4.37603e+06 2.32797e+06 1.20492e+06 918673 735320 297810 198776 127527 92561.2 73987.6
threshold=856.56650246305423 2268.0000000000005 132.50000000000003 264.15270935960598 2146.0000000000005 51.500000000000007 189.38423645320199 4387.498034825001 285.50000000000006 62.330049261083758 145.00000000000003 -1.0172413793103445 14.500000000000002 9.9500000000000011
decision_type=2 2 2 2 2 2 2 2 2 2 2 2 2 2
left_child=3 -2 -3 5 6 8 -5 10 9 -1 -7 -11 -13 -14
right_child=1 2 -4 4 -6 7 -8 -9 -10 11 -12 12 13 -15
leaf_value=-0.28006963086143793 8.4686701677666338 10.380442313058037 24.605713870930224 1.0839290847019716 6.4315795571463443 0.28948555170839668 3.313232123763473 2.0742282712182334 0.93605438195022883 0.51981566809319157 1.1084114193654544 -0.16686477414327652 0.52660768788201462 0.0025552907675249962
leaf_count=10246 61 35 53 44 35 149 54 43 51 37 37 398 35 117
internal_value=0 1465.78 1894.79 -19.7871 339.634 -24.0886 231.232 75.6927 -26.188 -26.752 45.239 -4.84647 -8.66944 12.3225
internal_count=11395 149 88 11246 133 11113 98 229 10884 10833 186 587 550 152
shrinkage=0.01


Tree=34
num_leaves=15
num_cat=0
split_feature=34 45 111 38 88 45 93 25 87 60 45 113 5 43
split_gain=3.1807e+08 3.95898e+07 1.70663e+07 1.05575e+07 4.19938e+06 2.92594e+06 1.82851e+06 933214 549116 228151 134839 113335 97394.6 92350.4
threshold=856.56650246305423 1850.0000000000002 204.00000000000003 132.50000000000003 1085.5000000000002 64.500000000000014 904.00000000000011 250.50000000000003 117.50000000000001 0.78679579246790421 30.500000000000004 40.850000000000001 733.18690190000018 15.500000000000002
decision_type=2 2 2 2 2 2 2 2 2 2 2 2 2 2
left_child=2 3 5 -2 7 8 11 -4 13 -10 -11 12 -7 -1
right_child=1 -3 4 -5 -6 6 -8 -9 9 10 -12 -13 -14 -15
leaf_value=-0.28186411670683642 6.5499206657409674 20.967810545296508 0.94175893398848443 13.412495785881493 5.5481109827869339 -0.096667613131659377 3.0759594970279274 3.1127502393722537 0.62926524323801847 -0.091914840821976429 0.382650612525537 0.91861936500097841 0.60010605548290497 -0.15921102477189239
leaf_count=9778 40 58 44 51 53 35 36 36 62 382 71 47 47 655
internal_value=0 1451.12 -19.5892 1039.6 336.501 -23.8509 108.322 191.871 -25.8429 6.03324 -1.75348 52.7106 30.2703 -27.4164
internal_count=11395 149 11246 91 133 11113 165 80 10948 515 453 129 82 10433
shrinkage=0.01


Tree=35
num_leaves=15
num_cat=0
split_feature=43 38 104 81 43 89 30 71 61 84 27 101 85 14
split_gain=3.27207e+08 7.64642e+07 3.49436e+07 2.19632e+07 1.00773e+07 2.74204e+06 1.41378e+06 1.16485e+06 919788 810274 267115 217213 160014 103737
threshold=1644.5000000000002 112.50000000000001 66018805.500000007 1312.5000000000002 539.50000000000011 1916.5000000000002 21.376847290640395 1793.0000000000002 95.500000000000014 410.50000000000006 36.500000000000007 2.6379310344827589 18.855082295000006 15.700000000000001
decision_type=2 2 2 2 2 2 2 2 2 2 2 2 2 2
left_child=3 -2 -3 6 7 -6 10 8 12 11 -1 13 -5 -8
right_child=1 2 -4 4 5 -7 9 -9 -10 -11 -12 -13 -14 -15
leaf_value=-0.27142186898897569 6.1369560946151616 13.309547952505259 25.883960340911269 -0.23363518685690668 4.0992566465294882 7.8134643729073661 -0.15009563274472673 2.8534053085352249 2.1812192123958041 1.7054321845347684 0.10688475386249392 0.69266624991508097 0.66712423167577595 0.47047508893741502
leaf_count=10562 64 39 51 38 46 35 107 38 35 45 190 68 41 36
internal_value=0 1449.3 2043.5 -18.2941 285.529 570.416 -24.725 133.714 83.1725 48.7198 -26.4737 22.7385 23.3848 0.613196
internal_count=11395 154 90 11241 233 81 11008 152 114 256 10752 211 79 143
shrinkage=0.01


Tree=36
num_leaves=15
num_cat=0
split_feature=34 43 43 111 23 45 82 93 71 34 72 40 43 48
split_gain=3.38612e+08 6.51047e+07 1.4413e+07 1.42539e+07 6.60141e+06 3.92088e+06 3.37529e+06 1.49598e+06 1.05803e+06 412360 285872 372096 86110.5 74657
threshold=687.57142857142878 4045.5000000000005 1730.0000000000002 317.50000000000006 -1.5689655172413792 64.500000000000014 14.866995073891633 904.00000000000011 1242.0000000000002 34.825123152709367 30.500000000000004 6.0566502463054199 8.5000000000000018 71.046440680319819
decision_type=2 2 2 2 2 2 2 2 2 2 2 2 2 2
left_child=3 2 -2 5 -4 8 -5 10 9 12 11 -7 -1 -11
right_child=1 -3 4 6 -6 7 -8 -9 -10 13 -12 -13 -14 -15
leaf_value=-0.27786735921821387 5.6394543327169222 23.446017539828432 15.872831181117467 1.9826097859276666 9.8534199564080485 0.45708331008825231 6.2555653161751597 2.7498645968967015 1.4591710445077883 0.06303221835097686 -0.0099896362215973616 1.5870394117224451 -0.19086928483820792 0.50658812864980796
leaf_count=9368 47 51 35 36 38 68 38 45 36 197 43 51 1295 47
internal_value=0 1398.12 995.861 -19.7528 1273.94 -22.656 417.683 113.688 -25.2351 -25.8 68.8834 94.135 -26.7302 14.8471
internal_count=11395 171 120 11224 73 11150 74 207 10943 10907 162 119 10663 244
shrinkage=0.01


Tree=37
num_leaves=15
num_cat=0
split_feature=34 43 43 34 48 24 71 30 105 54 34 75 43 93
split_gain=3.31874e+08 6.38091e+07 1.41262e+07 1.25371e+07 5.44241e+06 3.17483e+06 2.89133e+06 1.41054e+06 585151 515322 417200 359084 101096 58933.5
threshold=687.57142857142878 4045.5000000000005 1730.0000000000002 211.64285714285717 66.03839006932651 433.92857142857696 1242.0000000000002 56.78325123152711 1156.5000000000002 191.07142857142995 50.379310344827601 76.500000000000014 12.500000000000002 98.500000000000014
decision_type=2 2 2 2 2 2 2 2 2 2 2 2 2 2
left_child=3 2 -2 6 -4 8 7 10 -5 11 12 -9 -1 -12
right_child=1 -3 4 5 -6 -7 -8 9 -10 -11 13 -13 -14 -15
leaf_value=-0.27344586825454947 5.5830597767931351 23.211557437672337 9.9187448779956728 1.2668119313981798 15.380158415900338 5.2165765405312561 2.4851675549837258 -0.16566631091052089 2.86500796424018 1.5928456336508194 -0.081547884543736779 1.1169341307005711 -0.16846104455631877 0.31588698614093896
leaf_count=9703 47 51 37 63 36 39 39 58 36 48 51 35 1013 139
internal_value=0 1384.14 985.903 -19.5553 1261.2 279.997 -23.2842 -24.2437 184.797 75.1352 -25.5286 31.7033 -26.3521 20.9207
internal_count=11395 171 120 11224 73 138 11086 11047 99 141 10906 93 10716 190
shrinkage=0.01


Tree=38
num_leaves=15
num_cat=0
split_feature=45 43 71 43 61 111 45 87 24 28 61 84 71 61
split_gain=3.18622e+08 4.91534e+07 4.83121e+07 1.52021e+07 1.15896e+07 4.38118e+06 1.3597e+06 759507 703079 298178 199673 130010 102728 99362.8
threshold=1181.5000000000002 4045.5000000000005 1861.5000000000002 1130.5000000000002 165.50000000000003 489.50000000000006 42.500000000000007 745.50000000000011 227.14285714286044 -4.2222222222222259 12.500000000000002 246.00000000000003 750.50000000000011 34.500000000000007
decision_type=2 2 2 2 2 2 2 2 2 2 2 2 2 2
left_child=2 -2 4 -4 6 8 9 13 -6 -1 12 -12 -11 -8
right_child=1 -3 3 -5 5 -7 7 -9 -10 10 11 -13 -14 -15
leaf_value=0.50081008984492381 11.645717245434957 25.514075927734375 3.4480776415930854 11.978146612705331 0.96211388618276827 5.803845304216658 0.012838141585505286 1.8293533732440019 2.747182314130995 -0.26347141650149813 -0.076146659178393222 0.57540758445433204 -0.80614027241298136 0.4647840476036072
leaf_count=52 63 43 45 39 57 35 86 37 36 10475 245 35 35 112
internal_value=0 1727.16 -14.7092 740.847 -20.3733 278.808 -23.8305 51.4238 165.311 -25.4617 -25.8257 0.529762 -26.5279 26.8484
internal_count=11395 106 11289 84 11205 128 11077 235 93 10842 10790 280 10510 198
shrinkage=0.01


Tree=39
num_leaves=15
num_cat=0
split_feature=34 43 43 111 23 45 82 105 71 34 83 40 43 87
split_gain=3.18869e+08 6.12829e+07 1.36994e+07 1.35131e+07 6.40511e+06 3.69684e+06 3.25492e+06 1.44053e+06 976541 405936 283904 271326 81902.1 68516.8
threshold=687.57142857142878 4045.5000000000005 1730.0000000000002 317.50000000000006 -1.5689655172413792 65.500000000000014 14.866995073891633 665.50000000000011 1242.0000000000002 34.825123152709367 22.081413926840757 5.9655172413793141 8.5000000000000018 125.50000000000001
decision_type=2 2 2 2 2 2 2 2 2 2 2 2 2 2
left_child=3 2 -2 5 -4 8 -5 10 9 12 -7 -12 -1 -11
right_child=1 -3 4 6 -6 7 -8 -9 -10 13 11 -13 -14 -15
leaf_value=-0.26971950924082838 5.4538690055684844 22.750291239420573 15.462311694553922 1.9127440963851081 9.5330712790238223 0.12779292072568621 6.1088136261387875 2.6127740694552051 1.3996059781975216 -0.04901679680627935 0.55474847911684599 1.6755256165398493 -0.18490270756461002 0.28877434652553846
leaf_count=9368 47 51 35 36 38 63 38 49 36 102 54 36 1296 146
internal_value=0 1356.75 966.475 -19.1685 1237.59 -21.9952 406.748 112.056 -24.4686 -25.011 64.2656 100.306 -25.9412 14.9844
internal_count=11395 171 120 11224 73 11150 74 202 10948 10912 153 90 10664 248
shrinkage=0.01


Tree=40
num_leaves=15
num_cat=0
split_feature=34 27 30 80 38 84 2 111 29 34 45 34 43 34
split_gain=3.40657e+08 5.74171e+07 1.8991e+07 1.5445e+07 5.5436e+06 4.42883e+06 2.59088e+06 2.29282e+06 1.08652e+06 815793 306319 265499 150834 94897.7
threshold=856.56650246305423 2598.0000000000005 284.74876847290642 1591.5000000000002 39.500000000000007 357.50000000000006 1944.5000000000002 258.00000000000006 17.611111111111644 41.369458128078826 79.500000000000014 86.933497536945808 20.500000000000004 0.16009852216748763
decision_type=2 2 2 2 2 2 2 2 2 2 2 2 2 2
left_child=2 3 5 6 -4 9 -2 8 11 12 -11 -7 -1 -14
right_child=1 -3 4 -5 -6 7 -8 -9 -10 10 -12 -13 13 -15
leaf_value=-0.26349908990202253 6.0748211146763396 23.801026903788248 2.3078378511056665 16.117793579101562 7.7263077937534881 -0.14643764989376068 9.8458457655655707 3.255449886511673 2.1238131058216094 0.088811488591280643 0.82906407180544617 0.78875446990424514 0.21231570927493543 -0.15123983492024412
leaf_count=10057 35 48 41 35 35 75 38 44 40 204 77 51 83 532
internal_value=0 1470.09 -17.87 1065.63 480.319 -21.2618 803.782 122.589 68.7929 -24.0198 29.1657 23.2092 -25.4202 -10.2175
internal_count=11395 156 11239 108 76 11163 73 210 166 10953 281 126 10672 615
shrinkage=0.01


Tree=41
num_leaves=15
num_cat=0
split_feature=34 27 30 80 38 0 2 29 84 43 43 34 34 87
split_gain=3.33878e+08 5.62745e+07 1.86131e+07 1.51376e+07 5.43328e+06 4.77497e+06 2.53932e+06 1.93753e+06 1.01696e+06 559076 168461 356560 144438 45879.1
threshold=856.56650246305423 2598.0000000000005 284.74876847290642 1591.5000000000002 39.500000000000007 165.50000000000003 1944.5000000000002 17.611111111111644 424.50000000000006 30.500000000000004 285.50000000000006 112.1600985221675 50.379310344827601 491.00000000000006
decision_type=2 2 2 2 2 2 2 2 2 2 2 2 2 2
left_child=2 3 5 6 -4 7 -2 9 -7 -1 12 -12 13 -11
right_child=1 -3 4 -5 -6 8 -8 -9 -10 10 11 -13 -14 -15
leaf_value=-0.257877350270177 6.0140729500906813 23.56301670074463 2.2847594968284048 15.956615506853378 7.6490447856358115 0.85877492378497955 9.7473873630322903 1.9931898972926996 2.7234557470224674 -0.086255489661005033 1.1097254541942052 -0.19331134046827042 0.20672505019448306 -0.40208472764716957
leaf_count=10332 35 48 41 35 35 58 38 39 59 348 42 42 190 53
internal_value=0 1455.38 -17.6913 1054.98 475.515 -21.0492 795.744 -23.1778 179.908 -23.9661 3.917 45.8207 -2.03886 -12.7999
internal_count=11395 156 11239 108 76 11163 73 11046 117 11007 675 84 591 401
shrinkage=0.01


Tree=42
num_leaves=15
num_cat=0
split_feature=34 27 111 80 89 45 71 93 29 0 43 60 83 45
split_gain=3.27234e+08 5.51547e+07 1.82581e+07 1.48364e+07 5.36592e+06 3.71921e+06 2.48007e+06 1.61215e+06 1.03557e+06 387060 356719 227483 105039 88823.7
threshold=856.56650246305423 2598.0000000000005 317.50000000000006 1591.5000000000002 1247.5000000000002 65.500000000000014 4040.5000000000005 884.00000000000011 17.611111111111644 173.00000000000003 26.500000000000004 0.78679579246790421 22.081413926840757 28.500000000000004
decision_type=2 2 2 2 2 2 2 2 2 2 2 2 2 2
left_child=2 3 5 6 -4 8 -2 9 10 12 -1 -12 -7 -13
right_child=1 -3 4 -5 -6 7 -8 -9 -10 -11 11 13 -14 -15
leaf_value=-0.25687496468494886 6.1089286201878599 23.327386099497478 2.3689883004573353 15.79704910496303 7.3434332515171592 -0.027194476666549842 9.7984299599783764 2.7483477475245794 1.434010336076891 1.5386108427577549 0.71740054063307934 -0.12941905371645326 0.59936001716238085 0.14806895605011566
leaf_count=10205 38 48 57 35 35 45 35 48 37 36 39 523 66 148
internal_value=0 1440.83 -17.5144 1044.43 426.144 -21.1761 787.787 115.715 -23.6134 63.7578 -24.1796 -2.5061 34.5351 -6.82145
internal_count=11395 156 11239 108 92 11147 73 195 10952 147 10915 710 111 671
shrinkage=0.01


Tree=43
num_leaves=15
num_cat=0
split_feature=27 30 102 105 105 43 46 71 90 27 61 82 30 61
split_gain=3.20631e+08 4.22683e+07 2.97979e+07 1.10472e+07 6.65085e+06 3.20944e+06 1.52486e+06 1.28813e+06 868676 661948 252487 210323 81484.4 54053.6
threshold=1504.0000000000002 332.17241379310354 5998.4359605911332 1714.5000000000002 1647.5000000000002 285.50000000000006 24.714285714285968 146.50000000000003 -1.5357142857143022 34.500000000000007 77.500000000000014 -1.5985221674876846 3.6970443349753697 12.500000000000002
decision_type=2 2 2 2 2 2 2 2 2 2 2 2 2 2
left_child=1 4 -2 6 5 9 -3 -7 -9 11 13 -1 -13 -11
right_child=2 3 -4 -5 -6 7 -8 8 -10 10 -12 12 -14 -15
leaf_value=0.48602164944012965 13.452642817842788 2.3556672584669931 24.57559987661001 10.648370855649311 3.6388352273305258 0.10799317543323224 5.3075277590070451 3.0807745131468165 1.1369172019617897 -0.085445961648455027 0.83165112010070263 -0.25655874333081818 -0.13815218509511487 0.21287905947802821
leaf_count=39 69 35 37 36 45 65 35 39 56 104 56 10016 617 146
internal_value=0 -13.8283 1733.52 614.673 -19.7856 -21.3357 383.16 119.273 193.492 -23.3851 22.4727 -24.6999 -24.9688 8.87759
internal_count=11395 11289 106 106 11183 11138 70 160 95 10978 306 10672 10633 250
shrinkage=0.01


Tree=44
num_leaves=15
num_cat=0
split_feature=27 111 27 89 43 29 93 45 100 115 111 43 92 64
split_gain=3.1425e+08 4.19277e+07 2.89946e+07 1.04146e+07 5.74699e+06 1.95191e+06 1.94531e+06 625965 411849 452874 176228 86252.4 49659.4 38165.9
threshold=1504.0000000000002 443.00000000000006 2598.0000000000005 1916.5000000000002 285.50000000000006 17.611111111111644 884.00000000000011 27.500000000000004 19.500000000000004 86.000000000000014 84.500000000000014 8.5000000000000018 7.5000000000000009 38.500000000000007
decision_type=2 2 2 2 2 2 2 2 2 2 2 2 2 2
left_child=1 4 -2 -3 5 7 8 11 9 -6 12 -1 -9 -13
right_child=2 3 -4 -5 6 -7 -8 10 -10 -11 -12 13 -14 -15
leaf_value=-0.25694048468869923 12.403964378093852 3.3438693507256048 22.910923061370848 9.5853858704262596 -0.35445179038577607 2.0067060684546445 3.1071617616500173 0.0055916326481904553 1.7833386556307473 1.0782022825876874 0.7411283176315242 -0.16312118120558528 0.34978392494995086 -0.48452113502903993
leaf_count=9331 58 62 48 47 36 39 56 134 36 57 58 1334 61 38
internal_value=0 -13.69 1716.18 603.517 -19.7075 -22.6484 155.08 -23.4434 87.5174 52.3627 25.72 -24.6055 11.3262 -17.2023
internal_count=11395 11289 106 109 11180 10995 185 10956 129 93 253 10703 195 1372
shrinkage=0.01


Tree=45
num_leaves=15
num_cat=0
split_feature=34 45 64 34 23 29 30 43 6 83 84 101 0 43
split_gain=3.04337e+08 6.13914e+07 1.6034e+07 9.64801e+06 8.91648e+06 2.43526e+06 1.59583e+06 1.07423e+06 602253 497315 582247 1.24392e+06 170986 122985
threshold=687.57142857142878 1812.0000000000002 88.500000000000014 211.64285714285717 14.931034482758621 17.611111111111644 284.74876847290642 79.500000000000014 -42.212301587302683 18.022942977775752 141.00000000000003 1.1896551724137934 46.500000000000007 22.500000000000004
decision_type=2 2 2 2 2 2 2 2 2 2 2 2 2 2
left_child=3 2 -2 5 -4 7 8 13 -5 12 -11 -12 -9 -1
right_child=1 -3 4 6 -6 -7 -8 9 -10 10 11 -13 -14 -15
leaf_value=-0.24969657387262992 3.5140354821620843 21.0788779400241 15.105249795641219 2.7443153051326155 8.1938930511474606 2.3124097255656593 4.1431503617763523 -0.35137720591881694 1.1246722127651345 0.14070808135800891 2.71062096786499 0.33104661511162581 0.31790500754215678 -0.09784084906123354
leaf_count=10117 39 62 35 38 40 38 40 102 58 108 35 59 61 563
internal_value=0 1307.03 871.48 -18.228 1141.92 -21.4765 246.501 -22.346 176.578 31.0005 64.1584 121.706 -10.091 -24.1691
internal_count=11395 176 114 11219 75 11083 136 11045 96 365 202 94 163 10680
shrinkage=0.01


Tree=46
num_leaves=15
num_cat=0
split_feature=34 45 82 111 82 43 102 0 99 102 96 66 27 43
split_gain=2.98281e+08 6.01697e+07 1.69867e+07 9.60733e+06 2.29291e+06 1.93512e+06 934393 610052 254387 222967 129855 152109 184194 108617
threshold=687.57142857142878 1812.0000000000002 99.421182266009879 204.00000000000003 14.866995073891633 66.500000000000014 1208.1305418719214 140.00000000000003 195.9999999999996 362.59852216748772 5172.1109435450007 39.340114624644407 1.0000000180025095e-35 13.500000000000002
decision_type=2 2 2 2 2 2 2 2 2 2 2 2 2 2
left_child=3 2 -2 5 -5 9 7 10 -9 13 11 -7 -13 -1
right_child=1 -3 -4 4 -6 6 -8 8 -10 -11 -12 12 -14 -15
leaf_value=-0.24983875152073837 4.7675138440048492 20.868089255056073 12.48778400621916 1.4998889727156555 4.3633056059479713 -0.16858868584575423 1.9050055107703576 0.5423759892251756 1.7396437612261091 0.52691772148797389 -0.35030422996072214 0.9880367750591702 0.2048279757954139 -0.13133590185502544
leaf_count=9765 57 62 57 67 48 83 39 36 35 38 51 36 181 840
internal_value=0 1293.96 862.765 -18.0457 269.505 -21.0238 42.4063 28.7199 113.258 -23.7713 11.6196 19.5501 33.4761 -24.0452
internal_count=11395 176 114 11219 115 11104 461 422 71 10643 351 300 217 10605
shrinkage=0.01


Tree=47
num_leaves=15
num_cat=0
split_feature=34 80 82 62 111 71 82 0 0 87 52 49 72 93
split_gain=2.92345e+08 5.93332e+07 1.83817e+07 1.12474e+07 9.41614e+06 2.30155e+06 2.24728e+06 1.12435e+06 336189 201923 91744.4 277290 45732 49295.5
threshold=687.57142857142878 2134.0000000000005 99.421182266009879 1802.5000000000002 204.00000000000003 1189.5000000000002 14.866995073891633 48.500000000000007 165.50000000000003 83.500000000000014 121.50000000000001 93.290410000000008 64.500000000000014 323.50000000000006
decision_type=2 2 2 2 2 2 2 2 2 2 2 2 2 2
left_child=4 2 -2 -4 5 7 -6 9 -9 -1 11 -11 13 -12
right_child=1 -3 3 -5 6 -7 -8 8 -10 10 12 -13 -14 -15
leaf_value=-0.24400452765371161 5.4928717422485356 22.866868695345794 8.9615435093470985 16.978442411150251 1.4848901032333945 1.7451163500150046 4.3196724798281982 0.2619364780516914 1.1675073663243709 -0.074315125081969913 -0.16102115113378085 0.93824316542489183 -0.4336747746034102 0.091855624471391964
leaf_count=10217 62 44 35 35 67 60 48 181 53 119 290 35 44 105
internal_value=0 1281.02 945.801 1297 -17.8653 -20.8136 266.81 -21.8747 46.7044 -23.3592 -5.41956 15.5812 -12.7866 -9.38007
internal_count=11395 176 132 70 11219 11104 115 11044 234 10810 593 154 439 395
shrinkage=0.01


Tree=48
num_leaves=15
num_cat=0
split_feature=34 61 71 111 71 82 0 0 43 105 25 61 71 22
split_gain=2.86527e+08 5.73385e+07 1.526e+07 9.22876e+06 2.25575e+06 2.20256e+06 1.10197e+06 329499 275365 112859 50066.6 42268 52866 31497.2
threshold=687.57142857142878 1636.5000000000002 1861.5000000000002 204.00000000000003 1189.5000000000002 14.866995073891633 48.500000000000007 165.50000000000003 285.50000000000006 39.500000000000007 25.500000000000004 30.500000000000004 121.50000000000001 74.500000000000014
decision_type=2 2 2 2 2 2 2 2 2 2 2 2 2 2
left_child=3 2 -2 4 6 -5 8 11 9 -1 -11 13 -13 -8
right_child=1 -3 -4 5 -6 -7 7 -9 -10 10 -12 12 -14 -15
leaf_value=-0.24367414944440435 3.2519873027801514 19.875359406190761 11.03602744102478 1.4700411675225442 1.727665183544159 4.2764757827917741 -0.14064024880954198 1.1558322875904588 0.5969132106304168 -0.14542046539564188 0.13780245189281071 0.091380618371461581 0.5583129346014849 0.26778965787189762
leaf_count=9942 40 68 68 67 60 48 35 53 40 760 68 38 67 41
internal_value=0 1268.21 815.305 -17.6866 -20.6054 264.142 -21.656 46.2374 -23.1256 -23.4332 -12.2161 25.9317 38.9328 7.96969
internal_count=11395 176 108 11219 11104 115 11044 234 10810 10770 828 181 105 76
shrinkage=0.01


Tree=49
num_leaves=15
num_cat=0
split_feature=34 80 23 81 111 71 103 0 0 43 45 75 111 71
split_gain=2.80826e+08 5.74961e+07 2.24892e+07 1.00209e+07 9.04511e+06 2.21086e+06 1.9606e+06 1.08004e+06 322942 269885 113540 41552.5 37566.6 43181
threshold=687.57142857142878 2134.0000000000005 -34.258620689655167 6586.0000000000009 204.00000000000003 1189.5000000000002 23.500000000000004 48.500000000000007 165.50000000000003 285.50000000000006 8.5000000000000018 73.000000000000014 18.500000000000004 103.50000000000001
decision_type=2 2 2 2 2 2 2 2 2 2 2 2 2 2
left_child=4 2 -2 -4 5 7 -6 9 11 10 -1 12 -9 -14
right_child=1 -3 3 -5 6 -7 -8 8 -10 -11 -12 -13 13 -15
leaf_value=-0.23871367650453035 14.715717370510102 22.455038063742901 2.8420058458501645 9.7577217597961425 1.548903668721517 1.7103884665171305 4.2141654067194985 -0.093441405265759198 1.1442739531678974 0.59094415259361266 -0.075222506751695284 0.51628980539415192 -0.0053864704200199676 0.4352531734450919
leaf_count=10327 48 44 44 40 69 60 46 39 53 40 443 46 35 61
internal_value=0 1255.53 925.539 613.52 -17.5098 -20.3994 261.501 -21.4394 45.775 -22.8944 -23.1989 25.6724 16.8279 27.4603
internal_count=11395 176 132 84 11219 11104 115 11044 234 10810 10770 181 135 96
shrinkage=0.01


Tree=50
num_leaves=15
num_cat=0
split_feature=30 34 16 34 43 88 43 2 9 72 81 101 17 43
split_gain=2.32129e+08 3.64635e+07 3.38611e+07 8.25584e+06 1.33066e+06 1.10888e+06 1.22135e+06 649512 1.15825e+06 213787 250578 213489 202285 132869
threshold=1041.997536945813 856.56650246305423 1657.1749936468943 211.64285714285717 66.500000000000014 1150.5000000000002 532.00000000000011 623.50000000000011 59.285714285714299 74.500000000000014 234.50000000000003 4.5940263087937518e-17 4112.5000000000009 22.500000000000004
decision_type=2 2 2 2 2 2 2 2 2 2 2 2 2 2
left_child=1 3 -2 4 13 12 -7 9 -9 10 -6 -12 -5 -1
right_child=2 -3 -4 5 7 6 -8 8 -10 -11 11 -13 -14 -15
leaf_value=-0.23741740953452206 10.898874230957031 7.223677097149749 23.517856874208192 0.86269480635480178 -0.101577244221716 1.7841963179078368 4.4075963930402491 2.5068159160614014 0.13494583373069766 -0.50388353178236223 1.0659527459939322 0.27814183162908029 1.8977476211275375 -0.075563642036113959
leaf_count=10106 50 67 37 41 133 36 35 35 50 45 45 146 35 534
internal_value=0 -13.1636 1626.56 -17.5476 -20.6671 217.883 307.742 32.352 111.16 14.1984 23.1688 46.3752 133.936 -22.9294
internal_count=11395 11308 87 11241 11094 147 71 454 85 369 324 191 76 10640
shrinkage=0.01


Tree=51
num_leaves=15
num_cat=0
split_feature=111 43 34 0 34 43 2 9 82 85 43 28 43 18
split_gain=2.19978e+08 4.50849e+07 1.64381e+07 1.07306e+07 4.70797e+06 1.62181e+06 743726 1.03675e+06 561377 241816 292103 241368 130225 96580.9
threshold=811.50000000000011 4045.5000000000005 264.15270935960598 1453.5000000000002 785.00738916256171 66.500000000000014 623.50000000000011 54.071428571428577 20.120689655172416 15.828538895000003 193.00000000000003 5.1967974441813076e-15 22.500000000000004 11.250000000000002
decision_type=2 2 2 2 2 2 2 2 2 2 2 2 2 2
left_child=2 3 5 -2 8 12 9 -8 -4 13 -11 -12 -1 -7
right_child=1 -3 4 -5 -6 6 7 -9 -10 10 11 -13 -14 -15
leaf_value=-0.23504323691229811 5.8106659313263718 20.888064629448788 1.4669009299197437 12.919128683907646 6.2189748322336298 -0.33437378914459892 2.4395400880512437 0.31449631670425676 2.9317921494423076 0.12893211751148617 1.4717464544966417 0.32160989363988246 -0.074808006353313555 0.15655284611272141
leaf_count=10106 54 45 59 35 38 92 38 58 47 145 37 36 534 71
internal_value=0 1273.07 -15.7944 860.613 319.904 -20.1428 36.9023 115.566 211.643 17.0815 38.8659 90.4556 -22.7001 -12.0535
internal_count=11395 134 11261 89 144 11117 477 96 106 381 218 73 10640 163
shrinkage=0.01


Tree=52
num_leaves=15
num_cat=0
split_feature=30 71 97 27 61 105 43 66 43 71 40 54 43 96
split_gain=2.23616e+08 3.34956e+07 3.2565e+07 1.03245e+07 6.85983e+06 1.93989e+06 1.07747e+06 485551 452572 621547 344127 288673 126272 108771
threshold=1041.997536945813 1991.0000000000002 73.8095 1113.5000000000002 165.50000000000003 896.50000000000011 78.000000000000014 24.924112156144957 248.50000000000003 160.50000000000003 6.76600985221675 415.50000000000233 22.500000000000004 5172.1109435450007
decision_type=2 2 2 2 2 2 2 2 2 2 2 2 2 2
left_child=1 4 -2 -3 6 10 12 -8 13 -10 -6 -11 -1 -9
right_child=2 3 -4 -5 5 -7 7 8 9 11 -12 -13 -14 -15
leaf_value=-0.23269279347882324 8.5071653485979351 2.9809369487421855 20.983857380793644 9.6328348083496103 0.56550602131419714 3.9696687175006402 -0.7788226637087371 0.24009597965345092 0.071490978525395987 2.0089709581647601 1.8978951517740885 0.79756009900892111 -0.080594813276269509 -0.33211335992813112
leaf_count=10106 35 56 52 40 36 41 38 196 57 42 42 37 577 40
internal_value=0 -12.919 1596.45 575.256 -17.9551 220.862 -20.517 29.7904 40.7892 86.7364 128.295 144.16 -22.4478 14.3111
internal_count=11395 11308 87 96 11212 119 11093 410 372 136 78 79 10683 236
shrinkage=0.01


Tree=53
num_leaves=15
num_cat=0
split_feature=30 34 97 34 43 89 11 9 30 83 43 43 72 104
split_gain=2.19166e+08 3.41607e+07 3.1917e+07 7.75355e+06 1.24898e+06 1.0082e+06 619587 1.10255e+06 447649 149592 203845 125198 94045.1 66139.3
threshold=1041.997536945813 856.56650246305423 73.8095 211.64285714285717 66.500000000000014 2201.0000000000005 338.50000000000006 52.785714285714292 189.38423645320199 16.294080200902652 213.50000000000003 22.500000000000004 74.500000000000014 5390874.0000000009
decision_type=2 2 2 2 2 2 2 2 2 2 2 2 2 2
left_child=1 3 -2 4 11 8 9 -8 -5 12 -11 -1 13 -6
right_child=2 -3 -4 5 6 -7 7 -9 -10 10 -12 -13 -14 -15
leaf_value=-0.23036586616438584 8.422093776157924 6.9913768828093117 20.774018582564135 1.0907246077344532 -0.28005441257688735 3.5926957866123748 2.0063951351957501 0.042069074492300712 2.3651357532034116 0.081540640359682753 0.80238085926703695 -0.073253977355766997 -0.58984632234315615 0.24125918125206572
leaf_count=10106 35 67 52 63 45 35 53 62 49 151 53 534 37 53
internal_value=0 -12.7898 1580.49 -17.0332 -20.0563 211.124 31.3097 94.7367 164.828 9.79316 26.8818 -22.2481 -16.0296 0.188049
internal_count=11395 11308 87 11241 11094 147 454 115 112 339 204 10640 135 98
shrinkage=0.01


Tree=54
num_leaves=15
num_cat=0
split_feature=61 43 71 43 61 82 34 80 43 90 91 43 43 81
split_gain=2.04187e+08 3.27725e+07 3.24106e+07 1.06426e+07 7.15226e+06 1.82071e+06 1.08187e+06 327855 430093 326870 238504 186497 165091 75761.3
threshold=1130.5000000000002 4045.5000000000005 1991.0000000000002 1130.5000000000002 165.50000000000003 14.435960591133004 38.108374384236463 12.500000000000002 213.50000000000003 -0.35714285714286104 1.0000000180025095e-35 174.00000000000003 284.00000000000006 71.500000000000014
decision_type=2 2 2 2 2 2 2 2 2 2 2 2 2 2
left_child=2 -2 4 -4 6 -6 12 10 -9 -10 11 -8 13 -1
right_child=1 -3 3 -5 5 -7 7 8 9 -11 -12 -13 -14 -15
leaf_value=-0.23158432696267878 9.3611051513671875 21.343365801856631 2.4869048848229904 9.3661402277512984 1.1391455363866054 3.6150967359542849 0.042511140128661848 0.2332920990318437 0.40913671557967723 1.6599006386597952 0.5478182258605957 -0.82654602449993764 0.39125458110462541 -0.14387877680890548
leaf_count=9562 50 42 46 44 66 54 58 158 37 48 45 43 44 1098
internal_value=0 1483.13 -12.6959 585.009 -17.4933 225.332 -20.1201 31.6837 54.1866 111.545 -5.76987 -32.7483 -22.0027 -22.255
internal_count=11395 92 11303 90 11213 120 11093 389 243 85 146 101 10704 10660
shrinkage=0.01


Tree=55
num_leaves=15
num_cat=0
split_feature=45 43 34 111 84 93 61 87 25 45 34 111 27 105
split_gain=2.2468e+08 3.95975e+07 3.26552e+07 7.09461e+06 1.82839e+06 2.00845e+06 1.39952e+06 1.39576e+06 182248 128574 108650 75594.2 72408.7 46240.7
threshold=1181.5000000000002 4045.5000000000005 856.56650246305423 204.00000000000003 410.50000000000006 542.50000000000011 30.500000000000004 745.50000000000011 15.500000000000002 130.00000000000003 56 14.500000000000002 30.500000000000004 140.50000000000003
decision_type=2 2 2 2 2 2 2 2 2 2 2 2 2 2
left_child=2 -2 3 6 -5 -6 8 9 11 12 -10 -1 -8 -14
right_child=1 -3 -4 4 5 -7 7 -9 10 -11 -12 -13 13 -15
leaf_value=-0.22463986529246938 9.7969898003026064 22.77632494354248 8.0953323856989545 0.47284448944386981 1.4307960226477647 4.5070477364280013 -0.20719731901051863 2.2574715306208684 -0.037326387705955096 0.71234835139540731 0.53689648739127227 -0.046930610508334879 0.03668185635524638 0.39675888633728029
leaf_count=10416 57 40 48 42 41 44 53 39 141 43 43 245 68 75
internal_value=0 1514.93 -13.526 -17.0378 217.978 302.321 -19.7211 50.3389 -21.517 21.7158 9.6867 -22.0556 10.852 22.5533
internal_count=11395 97 11298 11250 127 85 11123 278 10845 239 184 10661 196 143
shrinkage=0.01


Tree=56
num_leaves=15
num_cat=0
split_feature=45 43 34 111 61 93 105 45 71 25 12 34 103 90
split_gain=2.20209e+08 3.88095e+07 3.20054e+07 6.95343e+06 1.37167e+06 1.27929e+06 1.20816e+06 183875 180072 121259 111306 86308.9 83133.7 96155.9
threshold=1181.5000000000002 4045.5000000000005 856.56650246305423 204.00000000000003 30.500000000000004 542.50000000000011 635.00000000000011 84.500000000000014 63.500000000000007 15.500000000000002 32061793.500000004 56 35.500000000000007 -3.6130952380952595
decision_type=2 2 2 2 2 2 2 2 2 2 2 2 2 2
left_child=2 -2 3 4 8 -5 7 -6 -1 12 -9 -11 13 -10
right_child=1 -3 -4 5 6 -7 -8 10 9 11 -12 -13 -14 -15
leaf_value=-0.22410953747673629 9.6990199810161926 22.548561454772948 8.0143790086110442 1.0973992576599121 0.053654565938093049 3.1077601241709578 2.2353902656010223 0.98566362857818601 0.35413247887293503 0.041869877801265248 0.24285621786588116 0.61446011078663365 -0.57879898432138799 -0.12679464654007674
leaf_count=10097 57 40 48 60 162 67 35 43 45 81 38 39 37 546
internal_value=0 1499.78 -13.3908 -16.8674 -19.5239 215.798 49.8355 24.8165 -21.3019 -6.33076 63.7186 22.7962 -11.8964 -9.01758
internal_count=11395 97 11298 11250 11123 127 278 243 10845 748 81 120 628 591
shrinkage=0.01


Tree=57
num_leaves=15
num_cat=0
split_feature=34 102 23 111 61 23 80 34 43 84 91 71 40 0
split_gain=2.15139e+08 5.11648e+07 2.06056e+07 8.40221e+06 2.5594e+06 1.28199e+06 516517 472594 165542 126195 113046 131925 99711.8 96606.6
threshold=687.57142857142878 5998.4359605911332 -28.172413793103441 482.50000000000006 44.500000000000007 -18.810344827586199 65.500000000000014 176.3768472906404 20.500000000000004 551.00000000000011 1.0000000180025095e-35 855.00000000000011 10.669950738916258 37.500000000000007
decision_type=2 2 2 2 2 2 2 2 2 2 2 2 2 2
left_child=3 2 -2 4 6 -6 8 13 -1 -9 11 -10 -12 -7
right_child=1 -3 -4 -5 5 7 -8 9 10 -11 12 -13 -14 -15
leaf_value=-0.22186005632046649 12.804271722927428 21.928373575983819 4.4745097186488492 4.6564191926850214 2.4436709346526708 -0.18583296712563965 0.91366817555776447 0.76612493543397819 -0.089155971862470054 1.5791569611685616 -0.025227176116991649 -0.67451237283101895 0.54198631506340178 0.3444145925045014
leaf_count=10079 57 37 62 36 39 49 41 42 632 35 79 41 51 115
internal_value=0 1165.78 846.44 -16.6931 -18.243 76.1617 -20.663 48.9417 -21.0851 113.568 -7.2669 -12.4817 19.7295 18.5987
internal_count=11395 156 119 11239 11203 280 10923 241 10882 77 803 673 130 164
shrinkage=0.01


Tree=58
num_leaves=15
num_cat=0
split_feature=45 71 34 0 111 61 27 90 2 80 87 82 45 71
split_gain=2.12193e+08 3.14731e+07 3.05467e+07 6.92165e+06 2.18626e+06 737971 496799 476212 324229 253964 141767 115361 86951 116744
threshold=1181.5000000000002 4797.5000000000009 856.56650246305423 165.50000000000003 482.50000000000006 44.500000000000007 348.50000000000006 -1.5773809523809399 544.50000000000011 65.500000000000014 63.500000000000007 31.315270935960591 38.500000000000007 110.50000000000001
decision_type=2 2 2 2 2 2 2 2 2 2 2 2 2 2
left_child=2 -2 3 5 6 9 8 -7 -5 10 -1 -12 -9 -14
right_child=1 -3 -4 4 -6 7 -8 12 -10 -11 11 -13 13 -15
leaf_value=-0.21977952120409466 10.346360193080589 22.137061716715493 7.8289983145395912 0.3735397996685722 4.0474234724044802 1.4705599775579241 2.2623491675986185 -0.16372340798377991 1.4982548198103904 0.64356398173740925 -0.054341494209715013 -0.62620239412462386 -0.047492455272004012 0.66814076293189573
leaf_count=10070 61 36 48 55 35 36 36 48 48 35 757 37 40 53
internal_value=0 1472.23 -13.144 -16.5405 181.359 -19.6494 125.112 44.4029 89.7679 -20.6896 -20.9636 -8.09899 18.1936 36.0342
internal_count=11395 97 11298 11250 174 11076 139 177 103 10899 10864 794 141 93
shrinkage=0.01


Tree=59
num_leaves=15
num_cat=0
split_feature=61 34 103 111 111 61 52 22 43 111 27 91 100 71
split_gain=2.07143e+08 5.07451e+07 1.27076e+07 6.79594e+06 1.9154e+06 1.13905e+06 756094 649299 185757 149359 102372 85752.8 66507.1 53066.3
threshold=1650.0000000000002 687.57142857142878 122.50000000000001 204.00000000000003 482.50000000000006 29.500000000000004 900.50000000000011 79.500000000000014 311.50000000000006 14.500000000000002 152.00000000000003 1.0000000180025095e-35 13.500000000000002 110.50000000000001
decision_type=2 2 2 2 2 2 2 2 2 2 2 2 2 2
left_child=1 3 -3 5 7 8 10 -5 9 -1 12 -11 -7 -14
right_child=-2 2 -4 4 -6 6 -8 -9 -10 11 -12 -13 13 -15
leaf_value=-0.21590766864307567 18.526658696492515 3.2079980973137747 10.465887478865112 2.4244585516793387 4.1975479072843278 -0.049185717912534115 1.6909931006082675 0.61706810366848242 0.45705011867341538 -0.070513341653838379 0.65344630071851939 0.36827340027071392 0.016247104064871867 0.50502149700090804
leaf_count=10464 60 45 52 35 35 104 41 46 42 279 45 53 36 58
internal_value=0 -10.3042 709.883 -16.5204 224.272 -19.0318 43.4847 139.804 -20.67 -20.9282 22.2905 -0.0466061 12.5055 31.7831
internal_count=11395 11335 97 11238 116 11122 284 81 10838 10796 243 332 198 94
shrinkage=0.01


Tree=60
num_leaves=15
num_cat=0
split_feature=45 43 71 61 109 111 34 30 84 61 102 33 43 45
split_gain=2.0415e+08 3.69751e+07 2.1427e+07 7.97772e+06 5.30999e+06 2.6474e+06 943240 606163 340029 167199 124699 115805 86177.6 85589.7
threshold=1181.5000000000002 4045.5000000000005 2094.5000000000005 165.50000000000003 1.0000000180025095e-35 479.00000000000006 54.559113300492619 284.74876847290642 410.50000000000006 12.500000000000002 22.982758620689658 16.30952380952386 176.50000000000003 78.500000000000014
decision_type=2 2 2 2 2 2 2 2 2 2 2 2 2 2
left_child=2 -2 3 6 -4 7 10 -5 9 11 -1 -8 -12 -11
right_child=1 -3 4 5 -6 -7 8 -9 -10 13 12 -13 -14 -15
leaf_value=-0.21765407544641627 8.7240175084200775 20.946712734646265 2.6848631364420839 0.78966387305408714 8.0834807989937918 4.6455902259009223 -0.5401093163944426 2.4145556155719645 1.0338030549346424 0.20137862501665951 -0.12341626892940587 0.23873450735637122 0.32348552979363332 0.68792222531705061
leaf_count=9705 55 45 38 58 35 35 42 38 61 96 1049 35 45 58
internal_value=0 1422.42 -12.6975 -16.2103 527.324 229.122 -19.1081 143.285 36.9743 19.4385 -20.6245 -18.6089 -10.5034 38.4622
internal_count=11395 100 11295 11222 73 131 11091 96 292 231 10799 77 1094 154
shrinkage=0.01


Tree=61
num_leaves=15
num_cat=0
split_feature=45 43 71 61 43 111 34 30 84 61 105 33 43 45
split_gain=2.00087e+08 3.62393e+07 2.10006e+07 7.81897e+06 2.87165e+06 2.59471e+06 924470 594100 333262 163871 125185 113500 94102.8 83886.5
threshold=1181.5000000000002 4045.5000000000005 2094.5000000000005 165.50000000000003 859.50000000000011 479.00000000000006 54.559113300492619 284.74876847290642 410.50000000000006 12.500000000000002 33.500000000000007 16.30952380952386 176.50000000000003 78.500000000000014
decision_type=2 2 2 2 2 2 2 2 2 2 2 2 2 2
left_child=2 -2 3 6 -4 7 10 -5 9 11 -1 -8 -12 -11
right_child=1 -3 4 5 -6 -7 8 -9 -10 13 12 -13 -14 -15
leaf_value=-0.21484200694759728 8.6367774110273885 20.737245910644532 3.2097786601384479 0.78176724135875708 7.1768953444506671 4.5991342904227119 -0.53470822198050361 2.3904100595649918 1.0234650316394744 0.19936484177849706 -0.11678019870173724 0.23634715870448519 0.36182334944259287 0.68104300039852494
leaf_count=9835 55 45 36 58 37 35 42 38 61 96 921 35 43 58
internal_value=0 1408.2 -12.5705 -16.0482 522.051 226.83 -18.917 141.852 36.6046 19.2441 -20.4183 -18.4229 -9.54317 38.0776
internal_count=11395 100 11295 11222 73 131 11091 96 292 231 10799 77 964 154
shrinkage=0.01


Tree=62
num_leaves=15
num_cat=0
split_feature=25 71 77 0 3 82 7 30 43 64 71 51 43 103
split_gain=2.03774e+08 3.5121e+07 2.00828e+07 6.45386e+06 6.23381e+06 1.39733e+06 1.27694e+06 1.18508e+06 313132 299766 111018 227271 285233 95735.7
threshold=1504.0000000000002 2094.5000000000005 605.50000000000011 165.50000000000003 956.85714285714118 14.435960591133004 8.698500000000001 132.32758620689657 34.500000000000007 6.5000000000000009 136.50000000000003 1.0000000180025095e-35 213.50000000000003 16.500000000000004
decision_type=2 2 2 2 2 2 2 2 2 2 2 2 2 2
left_child=1 3 -2 7 -3 9 -7 8 -1 -5 -10 12 -12 -13
right_child=2 4 -4 5 -6 6 -8 -9 10 -11 11 13 -14 -15
leaf_value=-0.20849758464098572 11.632290385478253 3.619873607383584 22.199088261195595 0.40045498392798684 8.7442397898296971 4.2122754805428642 1.511017628805978 1.4681017673847288 -0.10391173985478115 1.5078463058552958 0.16133991447914589 0.062411765220918153 1.0923500279017857 -0.54372938007116323
leaf_count=10375 37 53 35 44 43 35 35 43 341 55 152 57 42 48
internal_value=0 -10.7647 1676.89 -15.9147 591.516 178.028 286.165 -18.8787 -19.5255 101.567 1.94171 16.007 36.2899 -21.4681
internal_count=11395 11323 72 11227 96 169 70 11058 11015 99 640 299 194 105
shrinkage=0.01


Tree=63
num_leaves=15
num_cat=0
split_feature=25 71 35 61 3 111 34 30 84 25 15 43 43 0
split_gain=1.99719e+08 3.44221e+07 2.58475e+07 7.0718e+06 6.10975e+06 1.65898e+06 915742 659904 346393 178472 120959 118989 94181.4 81978.2
threshold=1504.0000000000002 2094.5000000000005 100.35714285714288 165.50000000000003 956.85714285714118 482.50000000000006 54.559113300492619 284.74876847290642 410.50000000000006 40.500000000000007 36.850000000000009 13.500000000000002 174.00000000000003 111.50000000000001
decision_type=2 2 2 2 2 2 2 2 2 2 2 2 2 2
left_child=1 3 -2 6 -3 7 11 -5 9 10 12 -1 -8 -11
right_child=2 4 -4 5 -6 -7 8 -9 -10 13 -12 -13 -14 -15
leaf_value=-0.21089783065523537 10.773816027254673 3.5836748731361245 22.761657173701696 0.76241535476569466 8.6567972605588839 3.9275431083988499 0.067207441789072911 2.4446242123383746 1.0227909026070245 0.25727162018800392 0.26635626290089048 -0.097793312670104937 -0.63709066928961344 0.90990723779326987
leaf_count=9771 37 53 35 58 43 37 37 39 63 39 78 1028 39 38
internal_value=0 -10.657 1660.12 -15.7555 585.601 212.597 -18.5139 143.877 36.5516 18.626 -1.02862 -20.0131 -29.4209 57.9352
internal_count=11395 11323 72 11227 96 134 11093 97 294 231 154 10799 76 77
shrinkage=0.01


Tree=64
num_leaves=15
num_cat=0
split_feature=25 71 35 61 3 111 34 30 84 25 101 82 59 0
split_gain=1.95744e+08 3.37371e+07 2.53332e+07 6.93107e+06 5.98817e+06 1.62596e+06 897519 646772 339500 174920 131545 120873 144292 80346.9
threshold=1504.0000000000002 2094.5000000000005 100.35714285714288 165.50000000000003 956.85714285714118 482.50000000000006 54.559113300492619 284.74876847290642 410.50000000000006 40.500000000000007 21.362068965517242 2.0566502463054195 1.0000000180025095e-35 111.50000000000001
decision_type=2 2 2 2 2 2 2 2 2 2 2 2 2 2
left_child=1 3 -2 6 -3 7 11 -5 9 10 -8 -1 -13 -11
right_child=2 4 -4 5 -6 -7 8 -9 -10 13 -12 12 -14 -15
leaf_value=-0.20489300461204657 10.666077821576916 3.5478380561324787 22.534040614264356 0.75479119526928873 8.5702293819604911 3.8882677516421755 0.15417253550492291 2.4201779806919586 1.0125630247025261 0.25469890080965479 -0.52990318672077075 0.51648352043573253 -0.094608892741908868 0.90080816243824202
leaf_count=10375 37 53 35 58 43 37 117 39 63 39 37 43 381 38
internal_value=0 -10.5505 1643.52 -15.598 579.745 210.471 -18.3288 142.438 36.1861 18.4397 -1.01833 -19.813 -3.26349 57.3558
internal_count=11395 11323 72 11227 96 134 11093 97 294 231 154 10799 424 77
shrinkage=0.01


Tree=65
num_leaves=15
num_cat=0
split_feature=0 27 23 38 25 61 38 87 102 34 43 22 9 103
split_gain=1.59506e+08 2.87424e+07 1.9033e+07 9.26096e+06 6.19757e+06 2.12877e+06 1.81412e+06 1.14331e+06 402201 259467 217655 198619 285200 144445
threshold=1636.5000000000002 640.50000000000011 -66.482758620689637 123.50000000000001 222.50000000000003 44.500000000000007 17.500000000000004 874.50000000000011 105.40640394088672 176.3768472906404 277.50000000000006 60.500000000000007 13.214285714285717 34.500000000000007
decision_type=2 2 2 2 2 2 2 2 2 2 2 2 2 2
left_child=1 4 -2 -3 5 8 -6 9 -1 -7 11 12 -10 -13
right_child=2 3 -4 -5 6 7 -8 -9 10 -11 -12 13 -14 -15
leaf_value=-0.20115454275265993 19.538680655343192 2.4271920519404939 9.7531746938954242 8.5331285642540973 1.2113226872996281 0.22989367595274154 4.3439259348975288 2.1710255127764762 1.1534800748484475 1.138950088351965 0.76274514971839058 0.0076150117997055089 -0.12312375452263015 -0.61879409199669244
leaf_count=10452 35 54 46 46 38 146 36 47 35 40 45 298 35 42
internal_value=0 -10.1523 1398.15 523.592 -14.912 -16.828 273.529 77.7514 -18.8485 42.539 10.2562 3.01034 51.5178 -6.97649
internal_count=11395 11314 81 100 11214 11140 74 233 10907 186 455 410 70 340
shrinkage=0.01


Tree=66
num_leaves=15
num_cat=0
split_feature=0 27 5 54 30 43 105 81 68 0 87 64 72 47
split_gain=1.56332e+08 2.81704e+07 1.83844e+07 7.71995e+06 6.11584e+06 2.09497e+06 934766 415061 383762 291416 205828 204536 123792 114601
threshold=1636.5000000000002 640.50000000000011 358.22742410000006 2365.8571428571454 284.74876847290642 102.50000000000001 1209.5000000000002 234.50000000000003 24.224944385786156 145.00000000000003 96.500000000000014 8.5000000000000018 48.500000000000007 29.550000000000004
decision_type=2 2 2 2 2 2 2 2 2 2 2 2 2 2
left_child=1 4 -2 -3 5 10 7 -7 -9 12 -1 -11 -10 -12
right_child=2 3 -4 -5 -6 6 -8 8 9 11 13 -13 -14 -15
leaf_value=-0.20030958206776717 18.664958541393279 2.8191803498103702 9.1360123732031848 8.4486643508502421 3.0364780228932702 -0.16783096515948009 1.9340517579425467 1.5013667736053466 0.37498232034315548 0.42011428149970803 -0.043905507581146516 1.4865057097843715 -0.27174889294997506 0.46019306334257126
leaf_count=10262 40 58 41 42 60 97 44 40 83 37 460 35 46 50
internal_value=0 -10.0508 1384.17 518.356 -14.7629 -16.4757 56.3006 38.4527 60.6845 42.8831 -19.0565 93.8499 14.4365 0.551592
internal_count=11395 11314 81 100 11214 11154 382 338 241 201 10772 72 129 510
shrinkage=0.01


Tree=67
num_leaves=15
num_cat=0
split_feature=0 34 23 30 112 103 111 93 84 74 43 6 102 34
split_gain=1.53221e+08 2.72299e+07 1.85673e+07 9.33256e+06 5.9709e+06 2.48329e+06 2.30795e+06 777525 627000 461623 357464 121277 157881 199485
threshold=1636.5000000000002 856.56650246305423 -66.482758620689637 284.74876847290642 1.6507936507936052 23.500000000000004 127.00000000000001 1237.5000000000002 345.50000000000006 99.997892320997821 30.500000000000004 221.69642857143728 113.98029556650248 7.5788177339901486
decision_type=2 2 2 2 2 2 2 2 2 2 2 2 2 2
left_child=1 3 -2 6 -3 -5 7 10 -8 -10 -1 12 -12 -14
right_child=2 4 -4 5 -6 -7 8 -9 9 -11 11 -13 13 -15
leaf_value=-0.19803392601654171 19.192037367412023 8.8876332031355965 9.5269957708275825 1.4827653929922315 3.167194819063754 5.1249417750040687 0.3572937749784727 1.0081315416856247 2.6216106087820874 1.0195635259473645 -0.059201426255530203 -0.48805625629425053 0.96987176343585757 0.15758234246541655
leaf_count=10345 35 36 46 36 37 39 52 55 35 37 345 40 35 222
internal_value=0 -9.95032 1370.32 -13.9037 598.823 337.67 -16.2652 -17.7887 119.403 179.834 -18.3824 4.51434 8.05719 26.8205
internal_count=11395 11314 81 11241 73 75 11166 11042 124 72 10987 642 602 257
shrinkage=0.01


Tree=68
num_leaves=15
num_cat=0
split_feature=45 17 105 43 30 54 102 30 93 114 38 61 111 78
split_gain=1.47059e+08 2.34467e+07 2.16582e+07 7.79797e+06 5.29051e+06 1.67271e+06 1.31303e+06 748799 363988 355563 311167 195862 115431 94002.4
threshold=1181.5000000000002 3936.0000000000005 1714.5000000000002 989.00000000000011 284.74876847290642 314.14285714285705 113.98029556650248 62.017241379310356 411.00000000000006 27439000.000000004 28.500000000000004 43.500000000000007 28.500000000000004 1.1750000000000003
decision_type=2 2 2 2 2 2 2 2 2 2 2 2 2 2
left_child=2 -2 4 -4 6 -6 12 9 -9 10 11 -8 -1 -14
right_child=1 -3 3 -5 5 -7 7 8 -10 -11 -12 -13 13 -15
leaf_value=-0.19636627223995093 17.529273209682732 7.8543130474090574 1.5735324945006262 7.3813510050773621 0.98504824965340743 4.0346369789742136 0.019842763652864356 0.58919163015653508 1.8620128656044985 0.88259985032834509 -0.86200549588884634 0.6230855470299721 -0.066464030336717078 0.49571296098828316
leaf_count=10409 43 60 43 50 35 37 313 53 39 57 35 65 116 40
internal_value=0 1189.34 -10.9872 469.602 -14.9782 255.22 -16.7265 30.3728 112.876 14.2233 4.00512 12.3575 -19.232 7.76839
internal_count=11395 103 11292 93 11199 72 11127 562 92 470 413 378 10565 156
shrinkage=0.01


Tree=69
num_leaves=15
num_cat=0
split_feature=45 5 105 43 61 51 102 25 92 84 99 55 43 61
split_gain=1.44132e+08 2.29801e+07 2.12272e+07 7.64279e+06 4.57371e+06 1.97915e+06 728229 493805 384145 459376 251168 172897 213763 68569.4
